element,0,1,2,3,4,5,6,7,8,9,10,11,12,13,14,15,16,17,18,19,20,21,22,23,24,25,26,27,28,29,30,31,32,33,34,35,36,37,38,39,40,41,42,43,44,45,46,47,48,49,50,51,52,53,54,55,56,57,58,59,60,61,62,63,64,65,66,67,68,69,70,71,72,73,74,75,76,77,78,79,80,81,82,83,84,85,86,87,88,89,90,91,92,93,94,95,96,97,98,99,100,101,102,103,104,105,106,107,108,109,110,111,112,113,114,115,116,117,118,119,120,121,122,123,124,125,126,127,128,129,130,131,132,133,134,135,136,137,138,139,140,141,142,143,144,145,146,147,148,149,150,151,152,153,154,155,156,157,158,159,160,161,162,163,164,165,166,167,168,169,170,171,172,173,174,175,176,177,178,179,180,181,182,183,184,185,186,187,188,189,190,191,192,193,194,195,196,197,198,199
X,0.0,0.0,0.0,0.0,0.0,0.0,0.0,0.0,0.0,0.0,0.0,0.0,0.0,0.0,0.0,0.0,0.0,0.0,0.0,0.0,0.0,0.0,0.0,0.0,0.0,0.0,0.0,0.0,0.0,0.0,0.0,0.0,0.0,0.0,0.0,0.0,0.0,0.0,0.0,0.0,0.0,0.0,0.0,0.0,0.0,0.0,0.0,0.0,0.0,0.0,0.0,0.0,0.0,0.0,0.0,0.0,0.0,0.0,0.0,0.0,0.0,0.0,0.0,0.0,0.0,0.0,0.0,0.0,0.0,0.0,0.0,0.0,0.0,0.0,0.0,0.0,0.0,0.0,0.0,0.0,0.0,0.0,0.0,0.0,0.0,0.0,0.0,0.0,0.0,0.0,0.0,0.0,0.0,0.0,0.0,0.0,0.0,0.0,0.0,0.0,0.0,0.0,0.0,0.0,0.0,0.0,0.0,0.0,0.0,0.0,0.0,0.0,0.0,0.0,0.0,0.0,0.0,0.0,0.0,0.0,0.0,0.0,0.0,0.0,0.0,0.0,0.0,0.0,0.0,0.0,0.0,0.0,0.0,0.0,0.0,0.0,0.0,0.0,0.0,0.0,0.0,0.0,0.0,0.0,0.0,0.0,0.0,0.0,0.0,0.0,0.0,0.0,0.0,0.0,0.0,0.0,0.0,0.0,0.0,0.0,0.0,0.0,0.0,0.0,0.0,0.0,0.0,0.0,0.0,0.0,0.0,0.0,0.0,0.0,0.0,0.0,0.0,0.0,0.0,0.0,0.0,0.0,0.0,0.0,0.0,0.0,0.0,0.0,0.0,0.0,0.0,0.0,0.0,0.0,0.0,0.0,0.0,0.0,0.0,0.0
H,0.0571464225649833,-0.225564569234848,0.1727991551160812,0.1833710968494415,-0.1107307523488998,0.2475197166204452,0.6925342082977295,0.1173265129327774,0.4624685645103454,-0.0330870151519775,0.067433662712574,-0.0147497048601508,0.4879246652126312,-0.4167247116565704,0.3461455702781677,0.5159202218055725,-0.0172147583216428,0.0103151435032486,0.206025019288063,0.506518542766571,0.4459245800971985,-0.2051046341657638,-0.4105861783027649,0.0156192006543278,-0.1282285898923874,0.0396342277526855,-0.2454918026924133,-0.0734557062387466,-0.0914496779441833,0.2034289538860321,0.1402904242277145,-0.124171681702137,-0.008109456859529,-0.3615849912166595,-0.2020965069532394,-0.1330289095640182,0.057683315128088,0.0662048384547233,0.030951390042901,-0.0825913399457931,0.1197760328650474,-0.2415793240070343,0.252226859331131,-0.0800393670797348,0.0167986117303371,0.3738012313842773,0.3342680931091308,-0.1653594076633453,-0.1832057833671569,0.5269500613212585,-0.1745064407587051,0.1338367015123367,0.1732770949602127,0.0683562383055687,-0.284208208322525,0.3499834537506103,0.2167234718799591,-0.3331234753131866,0.1186683103442192,-0.2930657267570495,0.2339158058166504,0.3702559471130371,0.1504359692335128,0.5610674023628235,-0.0347656458616256,0.1620352268218994,0.0630395337939262,0.0869645848870277,-0.2904792129993438,-0.1538705825805664,0.1655346453189849,0.1984849423170089,-0.3168135583400726,-0.1977850198745727,0.0127128874883055,0.2253479361534118,-0.3354632556438446,-0.1477384716272354,0.4536538422107696,-0.1757962852716446,0.2512580454349518,-0.0835434347391128,0.0532007850706577,-0.1596415638923645,-0.2577587962150574,-0.0972670689225196,0.1137370243668556,0.2988694012165069,0.6561954617500305,0.1738994419574737,-0.1822485327720642,0.0337862335145473,-0.109213039278984,-0.0152464797720313,-0.1404462158679962,0.0616431161761283,-0.2374698370695114,0.2183425724506378,0.0494108125567436,-0.2097346484661102,-0.0318102613091468,0.2248097062110901,-0.0835783705115318,-0.3616792261600494,-0.0719210803508758,-0.0190182831138372,-0.3032379746437073,-0.1583015024662017,0.4171209633350372,0.2698127329349518,-0.0996671020984649,0.0968560576438903,-0.1236840486526489,0.3818313181400299,-0.0049441331066191,0.0789638385176658,0.0425129607319831,0.4500473141670227,-0.1545875519514084,0.0291402470320463,-0.1790544688701629,-0.4450355470180511,-0.0176993738859891,0.0951901003718376,-0.0901082158088684,-0.1046986207365989,0.2175074517726898,-0.3971229195594787,0.1359909623861313,0.2351525574922561,0.1690402030944824,-0.0694247707724571,-0.1359094977378845,-0.2164168655872345,0.1380715519189834,-0.1427632719278335,-0.2866464853286743,0.0745204612612724,-0.2402803897857666,0.0623099617660045,-0.5478085279464722,-0.1194017529487609,0.0107211740687489,-0.1861559748649597,-0.0368820391595363,0.0779637619853019,0.1322624832391739,-0.0376063100993633,0.4138103723526001,0.1109140962362289,-0.0124628581106662,-0.0189162623137235,0.5455490946769714,-0.4342687129974365,0.1040330901741981,-0.2191245704889297,-0.0500314719974994,0.3159395158290863,-0.1942971646785736,0.2790384590625763,0.1489688605070114,0.7674955129623413,-0.3164527416229248,-0.2882999181747436,-0.0596834160387516,0.0380135923624038,0.1574514955282211,0.0019539997447282,-0.1874460279941558,-0.2761349081993103,-0.2943626344203949,-0.0100560504943132,0.0151013750582933,-0.6021302938461304,-0.2168992012739181,-0.2467855513095855,-0.0266376435756683,-0.0859838351607322,0.2112544327974319,-0.3202778100967407,-0.3461579084396362,0.0493890158832073,0.2708849310874939,-0.114502266049385,-0.0413153134286403,-0.0113144572824239,0.1826677173376083,-0.0303167030215263,0.1221892610192298,-0.0686051845550537,0.5069918632507324,-0.1612774282693863,-0.2184290885925293,0.0432263724505901,-0.1621968299150467,-0.0018223919905722,-0.0707422271370887,0.1783305555582046,0.1992596089839935,0.0717683434486389
He,0.0763784795999527,0.1158308908343315,0.1251366734504699,0.2622408866882324,-0.1501149982213974,0.1765217930078506,0.7350883483886719,-0.2968419790267944,0.4258027672767639,-0.1907556354999542,0.2248864471912384,-0.0286600496619939,-0.0099587924778461,-0.322152704000473,-0.1856124848127365,0.0439274609088897,-0.1824107021093368,0.019258027896285,0.0409148707985878,0.7133639454841614,0.1938387602567672,-0.4731720089912414,0.1310383081436157,-0.1246839761734008,-0.1431113928556442,-0.1545515805482864,0.1287445127964019,-0.2414888590574264,0.337130069732666,0.2152985632419586,-0.1459173113107681,0.0602310337126255,0.2864658236503601,0.0550490655004978,-0.4661599099636078,-0.0255660433322191,0.3672966659069061,0.2223414033651352,0.1186140105128288,-0.237784668803215,0.3484389781951904,-0.2494575828313827,0.2716807126998901,-0.2057956308126449,0.1105444803833961,0.1781894862651825,-0.1847238391637802,-0.1453919112682342,-0.2957271635532379,0.5039616823196411,-0.3585160672664642,-0.5043914318084717,0.4421868920326233,-0.0880075767636299,0.2252420932054519,0.3516758978366852,-0.2111544907093048,-0.4000596702098846,0.0517206005752086,-0.3737392425537109,-0.2173214852809906,0.5581350922584534,0.3926177024841308,0.6058470010757446,-0.0352361872792243,0.2729285061359405,-0.0594414994120597,0.0350311808288097,-0.2806538939476013,-0.1029436364769935,0.2460967600345611,0.2062488347291946,-0.2640863060951233,-0.1419769376516342,0.0010870118858292,-0.1663368195295334,-0.5741655230522156,0.066898375749588,0.4673345685005188,0.1588971465826034,-0.0486200265586376,-0.5987012386322021,0.1994145959615707,-0.0722523033618927,-0.6009622812271118,0.0016339477151632,-0.3803997039794922,0.3027391731739044,0.0675543621182441,-0.0926383957266807,-0.0561115555465221,-0.0866798162460327,0.0431227833032608,0.0552106648683548,-0.3100877702236175,-0.25482377409935,-0.1654753983020782,0.46753990650177,0.1188061162829399,-0.0670663714408874,0.1365818828344345,0.3187879920005798,0.1351168751716613,-0.2142703831195831,-0.2717494368553161,-0.0275933798402547,-0.2865478992462158,-0.0600112713873386,0.039851676672697,0.3044619560241699,-0.5593434572219849,-0.0062172156758606,-0.2470625787973404,0.3480114638805389,-0.1795813590288162,0.3379936218261719,0.0516894645988941,-0.2954772710800171,-0.193575918674469,-0.0888288915157318,-0.3910508155822754,-0.0562431961297988,-0.3107025325298309,0.1504213362932205,0.1444074958562851,-0.1092240512371063,0.0800445228815078,-0.8430271148681641,0.2646922469139099,0.2851577401161194,0.3040402829647064,0.0661728307604789,-0.3961110711097717,0.09930881857872,-0.0281237829476594,-0.0548214428126812,-0.0620245672762393,0.6697912812232971,-0.0875210165977478,-0.3187545239925384,-0.0666756182909011,0.1125402376055717,-0.1722118109464645,-0.1271179914474487,-0.181329533457756,-0.4506252408027649,0.2437138557434082,-0.1443122774362564,0.2222560197114944,-0.1275315135717392,-0.0895201191306114,-0.3389016985893249,0.5558528304100037,-0.4328882098197937,0.023463936522603,-0.2824347913265228,-0.3749761879444122,0.6021862030029297,0.0515701882541179,0.6193156242370605,0.109310507774353,0.6989884376525879,-0.0661660879850387,-0.1075386554002761,0.1988977640867233,0.1098648309707641,0.1640558391809463,-0.1046089082956314,-0.4034294784069061,-0.3241665959358215,-0.0595044419169425,-0.1708303391933441,0.1354096382856369,0.1570428609848022,0.3433669507503509,-0.2241060882806778,-0.2337558567523956,0.6480838656425476,0.2312298268079757,-0.3537837564945221,-0.6166995167732239,-0.0787506327033042,0.4474699199199676,-0.2820506393909454,0.226055696606636,0.126496359705925,0.2672760784626007,-0.3423374891281128,0.1281925439834594,-0.0231155585497617,0.08754263818264,-0.418238490819931,-0.0417729131877422,-0.2735357284545898,-0.0294609386473894,0.1458555161952972,-0.0028731739148497,-0.2837157845497131,0.0740934461355209,-0.0457920581102371
Li,0.0657738223671913,0.1597951650619506,-0.0506673790514469,0.1256579011678695,-0.3764522969722748,0.5976265668869019,0.6632367968559265,-0.013584392145276,0.1534818261861801,-0.343092143535614,-0.4418205618858337,0.0946564674377441,-0.0862484350800514,-0.7736117839813232,0.2639239132404327,0.1776917874813079,-0.2689122557640075,0.1053879857063293,0.3034240901470184,0.3957293629646301,-0.0191550478339195,-0.5411458611488342,-0.2850617468357086,0.088342934846878,-0.2364080250263214,0.1254799515008926,0.1670009642839431,0.0309087857604026,0.4360299706459045,0.074955828487873,0.0399629361927509,-0.049548503011465,-0.0598480068147182,-0.0352058187127113,-0.2986127734184265,0.1563409268856048,0.0791354775428772,-0.1303508281707763,0.2206282019615173,0.0462721921503543,0.6224278211593628,-0.1883206963539123,0.2142269313335418,0.0163538977503776,-0.2775130867958069,0.0901973992586135,-0.3139957785606384,0.1532737165689468,-0.6536311507225037,0.2416761070489883,-0.1472019255161285,0.0255388040095567,0.0017550875199958,0.0634287670254707,0.2898256778717041,0.5190944075584412,0.3736661970615387,-0.2872892022132873,-0.2748453617095947,-0.1700984239578247,0.3559058308601379,0.2883887588977813,0.1629088521003723,0.5561171770095825,0.0718651115894317,0.4483233690261841,-0.2995966970920563,-0.159590795636177,-0.0975526645779609,0.4151396751403808,0.3133053183555603,0.3392806351184845,-0.4202103912830353,-0.059421170502901,0.1311597973108291,-0.4421196281909942,-0.186624675989151,-0.1107450500130653,-0.2459107935428619,0.2688473165035248,0.1493295580148697,-0.0926308259367942,-0.2616684138774872,0.2102892845869064,0.440587967634201,0.1259962171316146,-0.0925299972295761,0.4163212478160858,0.1937728077173233,-0.1046306937932968,0.0545587912201881,-0.0902142226696014,0.0980296283960342,-0.1425094455480575,0.1751936674118042,0.2302454113960266,-0.032882947474718,-0.1854154765605926,-0.2732971608638763,0.0579016506671905,-0.0659941062331199,0.0959639027714729,-0.2985507547855377,0.3089854717254638,-0.2544562518596649,0.2472534626722335,-0.3484094142913818,0.6881991028785706,0.3889308273792267,0.0284332148730754,0.0736758112907409,-0.0916509628295898,-0.9205670356750488,-0.0694153308868408,-0.6996423006057739,0.3538338541984558,-0.1131551936268806,-0.2164821326732635,0.5612876415252686,-0.4061456024646759,-0.2774116694927215,-0.3754116296768188,0.2266779989004135,0.10852612555027,-0.0709036588668823,0.4428524971008301,0.4870134592056274,-0.4667995274066925,0.4364537298679352,0.1561940461397171,0.1819270402193069,0.6267666816711426,0.2414299994707107,0.1145922690629959,-0.0062916884198784,-0.4429726898670196,0.2690074145793915,0.2489512264728546,0.0377717465162277,-0.1418241709470749,0.0582563765347003,-0.1020767241716384,0.1462589502334594,-0.1892392188310623,-0.3747825026512146,-0.1354426592588424,-0.0860299095511436,-0.1393434852361679,0.3443819582462311,-0.064650610089302,0.5107240080833435,-0.2063861340284347,0.2707296311855316,-0.0989271104335784,0.1472388356924057,-0.0227580163627862,-0.1656432151794433,0.6468678712844849,-0.077614426612854,0.4567174613475799,-0.0292841121554374,0.3032774627208709,-0.1284384131431579,-0.0615632757544517,0.1525213718414306,0.3082658052444458,-0.270980954170227,-0.2387745678424835,0.2200558334589004,-0.2258231192827224,0.010659696534276,-0.0675288662314415,0.1973682045936584,0.0743528977036476,0.1295894235372543,-0.1261922568082809,0.1480432897806167,0.159474179148674,-0.273718774318695,-0.2368612289428711,0.1049206480383873,-0.0256974268704652,0.3039430677890777,-0.0341664813458919,0.354544073343277,0.2546853125095367,-0.1581601649522781,0.0212431773543357,-0.1068997830152511,0.0103969173505902,-0.2185972034931183,0.114456720650196,-0.0605541728436946,-0.1690024882555008,0.2375596314668655,0.3104428648948669,0.04537158831954,0.4367249608039856,-0.057980328798294,0.2147561162710189
Be,-0.0168329887092113,-0.162081629037857,0.0856089442968368,-0.0138853769749403,-0.7132807970046997,0.3233212530612945,0.8926117420196533,0.193874642252922,0.3171904385089874,-0.2353205531835556,0.264111191034317,-0.0263084005564451,-0.2366895675659179,-0.402366042137146,-0.2189819812774658,0.1128245368599891,-0.1868482828140258,0.2435670047998428,-0.1537182480096817,0.2322330474853515,0.0143061932176351,-0.5195959210395813,0.0179563481360673,0.0158999655395746,-0.390897661447525,0.0262590553611516,0.1886443346738815,0.1478272825479507,0.3587272465229034,-0.0438342504203319,-0.0576635226607322,0.1289082914590835,0.1536518484354019,0.0292214304208755,-0.40493044257164,-0.1780927032232284,0.1180372312664985,0.1202975437045097,0.1196777150034904,-0.4861292541027069,0.5661824345588684,0.0095695424824953,-0.2158306837081909,-0.5200890302658081,-0.3403306901454925,0.1761721223592758,0.2721068263053894,-0.1438143402338028,-0.907030463218689,0.0823164209723472,0.0404172278940677,-0.3644492328166961,0.0830252841114997,-0.0884321182966232,0.3993082046508789,0.9432663321495056,0.6589402556419373,-0.0313103459775447,-0.4309862554073334,0.0929004400968551,-0.3033438622951507,0.250069797039032,0.0667050033807754,0.2185697555541992,-0.3766887187957763,0.3099554479122162,-0.0824887976050376,0.0485014431178569,-0.294151097536087,0.1902205795049667,-0.0623876042664051,0.156626209616661,-0.2974537312984466,0.3113150000572204,0.1141915246844291,-0.3070753216743469,-0.2599094212055206,-0.1474366039037704,0.0354730524122715,-0.6111006140708923,0.0829540640115737,-0.1646858900785446,-0.1767613291740417,-0.0314369201660156,-0.2513486444950104,-0.0565878003835678,-0.3408597111701965,0.1458671689033508,0.1055095270276069,-0.2180528491735458,-0.4462355375289917,-0.250232458114624,-0.2022157609462738,0.0944223254919052,-0.3488551676273346,0.3447960317134857,-0.0725198090076446,-0.1282309591770172,0.3741301596164703,0.131390780210495,0.4125891625881195,0.4172055125236511,-0.0659149512648582,-0.0974819958209991,0.1136116907000541,-0.1746944338083267,0.0180782731622457,0.3224586248397827,-0.3129805326461792,0.1497438549995422,-0.211447387933731,-0.1088267937302589,-0.5354593992233276,0.398981899023056,-0.446193128824234,0.2962809205055237,0.0852394253015518,-0.0494092814624309,0.0684496983885765,-0.5167163014411926,-0.1482878774404525,-0.3614774942398071,-0.1186206117272377,-0.162734717130661,-0.391179472208023,0.1499477475881576,0.1345919519662857,-0.7344564199447632,0.474673181772232,-0.0370234549045562,0.5074618458747864,0.0617940798401832,0.4546213150024414,-0.0858276858925819,0.6845889687538147,0.3278623521327972,-0.0434503927826881,0.1604995429515838,0.4098671376705169,-0.2155458629131317,-0.0521232038736343,-0.3083953261375427,0.0197419989854097,-0.0777301117777824,-0.3998360335826874,-0.1217608600854873,0.0973365232348442,-0.3265897929668426,0.3237895965576172,0.0537123307585716,0.1150149181485176,-0.4579142332077026,0.494092583656311,-0.1487908214330673,-0.175310418009758,-0.4041352570056915,-0.2102286368608474,0.536342978477478,0.086875632405281,0.653113842010498,0.2362963408231735,0.5407698750495911,-0.5775667428970337,-0.0417556837201118,0.1938069313764572,-0.0636242255568504,0.0435344129800796,-0.313803106546402,-0.1509842574596405,-0.1388393640518188,0.0322754308581352,-0.168337270617485,-0.2863048315048218,0.1672478318214416,-0.0793671607971191,-0.5040001273155212,0.3274028897285461,0.2849230170249939,-0.2855833768844604,-0.1428058445453643,-0.1487376242876052,-0.4246945977210998,0.2525646090507507,-0.53299480676651,-0.1584132760763168,-0.1434052735567093,0.1662570834159851,0.2478293031454086,0.3552822768688202,-0.1807966381311416,-0.2828195095062256,0.1762759983539581,-0.1156358644366264,-0.244952455163002,-0.153747409582138,0.1300998330116272,0.490355908870697,0.3579766452312469,-0.3506051898002624,0.0967045053839683
B,-0.3706240952014923,-0.0560034178197383,0.1845341622829437,0.3697928488254547,-0.2053766250610351,0.2265144288539886,0.4213713407516479,0.2162755578756332,0.122852049767971,-0.3895924091339111,-0.0905406326055526,-0.0180921051651239,0.3296767473220825,-0.7196409702301025,0.0383237786591053,0.4108631014823913,-0.0561918504536151,-0.0299897287040948,-0.0710944309830665,0.1398019045591354,0.0750952064990997,-0.3323756754398346,-0.3865111470222473,0.4567477405071258,-0.0266215596348047,0.0038650028873234,0.2035933434963226,0.2551553845405578,0.3967884182929992,-0.1485028862953186,0.079581081867218,-0.0133864041417837,-0.1641673445701599,0.1806528866291046,0.1998205035924911,-0.2440505772829055,-0.2199039757251739,-0.1377774178981781,-0.1079707592725753,-0.0171446241438388,0.2333468496799469,-0.0908863842487335,-0.2486128211021423,-0.0825435742735862,-0.0215041805058717,-0.0839605256915092,0.1558962166309356,-0.3029292225837707,-0.4784664809703827,0.0850442796945571,0.3906930983066559,0.3248063325881958,0.1684030890464782,-0.1108445823192596,0.0656736567616462,0.4774214029312134,0.54473876953125,-0.3074671030044555,0.2581356763839721,0.0386572778224945,0.2106258422136306,0.0889439135789871,0.1938851773738861,0.294852465391159,-0.0521885938942432,0.006441178265959,-0.2107947468757629,-0.2940198481082916,-0.0170963313430547,0.1527220755815506,0.1932669430971145,0.1310919672250747,-0.224889650940895,-0.1487098336219787,-0.1243494153022766,0.1720498502254486,-0.3341649770736694,-0.3729506433010101,-0.1569138467311859,-0.4013008177280426,0.309794008731842,0.12636798620224,-0.0966462865471839,0.0441003553569316,-0.1040208265185356,-0.0214005447924137,0.1289128363132476,-0.0267253052443265,0.4831283986568451,-0.5132009983062744,-0.1984341889619827,-0.0267527736723423,-0.0673980489373207,-0.2058178931474685,0.0732299014925956,0.1461395025253296,-0.1527082771062851,-0.12750805914402,0.0680466368794441,0.1540988236665725,-0.0380321890115737,-0.0302034169435501,-0.0628785714507103,0.1735668033361435,-0.32739919424057,0.0084959361702203,-0.064798817038536,-0.2295096218585968,0.1756825447082519,-0.0986769273877143,0.3905631303787231,0.4448963403701782,-0.3596856892108917,0.2813336849212646,-0.2234743982553482,0.0051192729733884,0.268751710653305,0.0528274290263652,-0.0508000738918781,-0.0413197502493858,0.0676470398902893,-0.6102526187896729,-0.0178817026317119,0.2114462107419967,0.1643601804971695,0.2748847007751465,0.2915889024734497,-0.3345800042152405,-0.1028952673077583,0.1315474212169647,0.1087290868163108,0.0329673402011394,-0.2106893509626388,0.3047527968883514,-0.0879561230540275,0.1314945369958877,0.0596239566802978,-0.2313041090965271,0.1500752419233322,-0.1383514255285263,-0.1282804757356643,-0.2325053662061691,0.0698170810937881,-0.0862320810556411,-0.3371731340885162,0.3339121043682098,0.0927489399909973,-0.0635970458388328,0.2043974846601486,0.2154592275619506,-0.1494310945272445,-0.2465134114027023,0.2761944532394409,-0.3776286840438843,-0.2909193933010101,-0.4125656485557556,-0.0325098857283592,0.4711534380912781,0.1238360553979873,-0.226013645529747,-0.2289971262216568,0.8203032612800598,-0.4193635880947113,-0.1848940402269363,0.2672789096832275,-0.036579243838787,-0.225197821855545,0.0330192819237709,-0.2602603435516357,-0.312042623758316,-0.1512176543474197,0.1818879842758178,-0.3761883080005646,-0.1234169602394104,-0.2815075218677521,-0.370647668838501,0.0520048774778842,-0.1161653473973274,0.0678084716200828,-0.2828090488910675,-0.2197982370853424,-0.5851419568061829,0.1340534538030624,-0.5881211757659912,-0.0072887535206973,-0.0950517356395721,0.2730644643306732,0.2374717742204666,0.2245225757360458,0.0219354089349508,0.342734158039093,-0.0942369624972343,0.1388361006975174,0.431818813085556,-0.2651776075363159,0.1466007083654403,0.319363385438919,0.0840861573815345,0.1307432204484939,0.1480903178453445
C,-0.0448512844741344,0.085804246366024,0.0622561313211917,0.0856638774275779,-0.0951649621129036,0.0816861614584922,0.1264657378196716,0.0542713776230812,0.1411058604717254,0.0416225977241992,0.1529536098241806,-0.2559254765510559,0.4063627123832702,-0.3409558832645416,-0.1394348740577697,0.2235821038484573,0.0793229565024375,0.0331546030938625,-0.0574649162590503,0.4141919016838074,-0.0473900139331817,-0.2418933659791946,-0.2518999874591827,-0.0431398935616016,-0.2538604736328125,0.1611279100179672,0.0689752101898193,-0.055507518351078,-0.0615890212357044,-0.1334055364131927,-0.1676582545042038,0.2673031985759735,-0.2813815772533417,-0.2404378801584243,0.0399127379059791,0.0756110697984695,-0.008349547162652,0.0428369827568531,0.0410141982138156,-0.0301948562264442,0.2047549784183502,-0.2363686561584472,0.0299314297735691,0.0906213894486427,-0.0972942411899566,0.0367129482328891,0.3938799500465393,0.0616984814405441,-0.2484952211380005,0.4962537288665771,0.0374782010912895,0.2770731151103973,0.5596239566802979,0.0100255077704787,0.0124015025794506,0.292169451713562,0.3338088095188141,0.117130160331726,0.0561873130500316,-0.1774423271417617,0.2090329825878143,0.3167791962623596,0.1892458647489547,0.3239868879318237,0.0647083967924118,0.2047066688537597,-0.109100118279457,0.2734341025352478,-0.2889916598796844,-0.0250810645520687,0.3849683105945587,0.1785971373319625,-0.2074146419763565,0.3395226895809173,0.1578804850578308,0.0645184069871902,-0.382891446352005,-0.5640725493431091,0.0526331700384616,-0.1551868319511413,-0.0131485238671302,0.2151414453983307,-0.1229554265737533,-0.0178494844585657,-0.0470324456691741,0.0146263111382722,0.2608634531497955,0.2066272050142288,0.3942544460296631,0.0409167259931564,0.0610985681414604,0.0682686269283294,0.1469479203224182,-0.202349916100502,0.0312974639236927,-0.0621913373470306,-0.122778482735157,0.0823095068335533,0.1724087297916412,0.2214134335517883,0.0475489906966686,0.2288544327020645,0.0099876169115304,-0.0746869817376136,-0.3029456734657287,0.0270237177610397,-0.1485133171081543,0.2719347774982452,-0.0542708374559879,0.2249924689531326,0.1662410646677017,-0.0370766147971153,-0.2252399176359176,-0.2018328011035919,-0.1607391536235809,0.0358351692557334,-0.0080040097236633,0.3059377372264862,0.2749650180339813,-0.5471361875534058,0.239381805062294,-0.3204969465732574,0.0493010245263576,-0.2477471381425857,-0.1405209451913833,0.0978928580880165,0.1964672058820724,-0.0075617651455104,0.0267721451818943,0.3372962176799774,-0.11847984790802,-0.1937455534934997,0.0060344655066728,0.0957145690917968,-0.2894690632820129,-0.0538218691945076,-0.3090911209583282,-0.1108884587883949,0.3707656860351562,-0.094391644001007,-0.1800265610218048,-0.0433712005615234,-0.0519119016826152,-0.2054657489061355,-0.2869460582733154,-0.3401053845882416,0.0902012288570404,-0.3480219841003418,-0.016136260703206,0.3009244501590729,0.1665083616971969,0.1229648068547248,0.2593233287334442,-0.0890868082642555,-0.2105970233678817,-0.2620391249656677,-0.1271205991506576,-0.058680273592472,-0.0686173737049102,-0.032311525195837,0.1106124892830848,0.3047613203525543,0.023051680997014,0.2000365406274795,0.1582337915897369,0.4676476120948791,-0.0883900672197341,0.1175137609243393,-0.0405875071883201,-0.1242666840553283,-0.1539244800806045,0.163765862584114,0.1968157887458801,-0.1633899211883545,0.1095883920788765,-0.296375036239624,0.1369694769382476,-0.0435191765427589,0.1367513239383697,-0.267568975687027,-0.3956786692142486,-0.0593675300478935,0.0753166526556015,-0.1180086210370063,-0.0108096348121762,-0.0634215101599693,0.1527209877967834,-0.2118232697248459,-0.0846945121884346,0.1331178992986679,0.3080572187900543,-0.1382114291191101,0.0266298968344926,-0.1553623229265213,0.0700445547699928,-0.1713397651910781,0.1874877661466598,0.0744865089654922,-0.0767001286149025,0.1621773540973663
N,-0.2404274493455886,-0.0849469304084777,0.385820984840393,0.1279986947774887,-0.1087458580732345,0.3794374465942383,0.5790536403656006,0.4025681614875793,0.3873147070407867,-0.1553752422332763,0.2157168537378311,-0.4530410766601562,0.1745960265398025,-0.5734603404998779,0.1360632330179214,0.399596095085144,0.0936638563871383,0.2394082248210907,0.1659161895513534,0.6027982831001282,0.091778315603733,-0.239213690161705,0.1206309646368026,-0.0733439624309539,0.1364269107580185,-0.1639991551637649,0.077050045132637,-0.0261406917124986,0.1407149583101272,0.2860940992832184,0.1496928632259369,0.2697589695453644,-0.0244408398866653,-0.2844629287719726,0.0697809383273124,-0.1992880403995514,0.1526200473308563,0.1614399701356887,0.1285698562860489,-0.6341169476509094,0.4008565247058868,-0.0386855415999889,-0.1197205260396003,-0.0599114522337913,-0.2460302263498306,0.5271894931793213,0.475401908159256,-0.2078660130500793,-0.1501998752355575,0.4153906404972076,-0.177131712436676,-0.0649249851703643,0.0391570329666137,0.2181011736392974,-0.3187021613121032,0.1233266666531562,0.2149011641740799,0.0008599646389484,0.2973877191543579,-0.1509584933519363,0.0759318992495536,-0.0978301540017128,0.2415762990713119,0.441496193408966,0.2495003938674926,0.0773689970374107,0.0183611121028661,-0.0147144412621855,-0.2911922037601471,0.0465486161410808,0.3936655819416046,0.1371827125549316,-0.1964039653539657,-0.0747680962085723,0.0477585420012474,0.3076004087924957,-0.525187075138092,-0.2938520908355713,0.0909261703491211,0.1277089267969131,0.2886675596237182,0.0051243072375655,-0.0671855211257934,-0.1316126585006714,-0.2684650123119354,-0.065015822649002,0.0731804519891738,0.1395727097988128,0.2998558580875397,-0.1355328261852264,-0.0263715684413909,-0.0762951448559761,0.1129492819309234,-0.0918779596686363,-0.2255895584821701,0.2451604306697845,-0.3212455213069916,0.1516784429550171,0.0924313962459564,-0.1307791918516159,-0.1693780869245529,0.125808373093605,0.2004320621490478,-0.0879473090171814,-0.1762236803770065,-0.0022654382046312,-0.0573662258684635,0.4641094505786896,0.2109079957008361,0.1236900612711906,-0.127813383936882,-0.0238670445978641,-0.2997735440731048,0.1934744864702224,-0.1163861006498336,0.1704282164573669,0.2373437136411667,0.0023693691473454,0.211792767047882,-0.1076648086309433,0.4100141227245331,-0.7545569539070129,0.1989654153585434,-0.0996875762939453,0.0513556264340877,-0.0425636656582355,-0.0368891060352325,-0.2863376438617706,0.141785517334938,0.0453010648488998,0.0257911346852779,-0.1969817578792572,-0.3534119725227356,0.2956594228744507,0.1091339737176895,-0.11956387758255,-0.3131641745567322,0.0541630946099758,-0.1282926052808761,-0.3061698675155639,-0.0420996583998203,-0.0130309155210852,-0.1543446332216262,-0.1812558770179748,0.1940831393003463,0.1323787420988083,0.0229840725660324,-0.2592096924781799,0.1199662685394287,0.2309474796056747,0.0464790314435958,0.4103249013423919,0.0402744486927986,-0.1718910336494445,-0.324899822473526,-0.1536071598529815,-0.1356005817651748,0.1345517784357071,0.1949265450239181,-0.1394224017858505,0.154410183429718,0.6806413531303406,-0.0285740904510021,-0.1756956875324249,0.4400050938129425,0.3453110158443451,-0.0285185258835554,-0.1594041436910629,-0.149609625339508,-0.1181954741477966,-0.1087013483047485,-0.3032800853252411,-0.1497391760349273,-0.234759122133255,-0.3466466069221496,-0.1500734388828277,-0.1272415071725845,-0.0113225951790809,0.1681846976280212,-0.3185238838195801,-0.442948579788208,-0.3255438804626465,0.268340528011322,-0.3191056251525879,-0.0012325964635238,0.0071591520681977,-0.0352589972317218,-0.2447074949741363,0.2783551216125488,0.1319761574268341,0.2253941744565963,-0.1445018649101257,-0.0189820099622011,-0.2311164289712906,-0.1763064116239547,-0.0662999525666236,-0.1094655096530914,0.4013205170631408,0.0892871767282486,-0.3038391172885895
O,-0.0108224293217062,-0.2720937132835388,0.0467011556029319,0.0188521984964609,-0.2217732071876526,0.2217990458011627,0.50813889503479,0.0500240884721279,0.2533813416957855,-0.2027298212051391,0.0099708884954452,-0.0790351778268814,0.4180345237255096,-0.4671371579170227,-0.0209062620997428,0.3443405628204345,0.2410223335027694,-0.011278711259365,0.3039338886737823,0.4395307302474975,0.0170585941523313,-0.3831669688224792,-0.0881256163120269,0.0920255705714225,-0.0006823575240559,0.0304965712130069,-0.3784456849098205,0.1665807515382766,0.0491597354412078,0.0901764705777168,-0.1944049000740051,0.2515393197536468,-0.1665221750736236,-0.1421065032482147,0.1114140450954437,-0.275333434343338,0.1348587572574615,-0.0675584524869918,-0.0634153261780738,-0.55350261926651,0.6069961786270142,-0.0208855737000703,0.2171023339033126,-0.1309191584587097,-0.2323833703994751,0.3130151629447937,0.3791214525699615,-0.0033187291119247,-0.3275573849678039,0.5428475141525269,-0.3524999916553497,-0.1125399619340896,0.1749064475297927,0.137766495347023,-0.289941132068634,0.6033706665039062,0.1976375132799148,-0.1434699892997741,0.0619650855660438,-0.1412509828805923,0.3083645403385162,0.3015618324279785,0.1246604099869728,0.373607188463211,0.4395398795604706,0.120278775691986,0.02772674895823,-0.3076836466789245,-0.047615073621273,-0.2666576504707336,0.096066266298294,-0.0891990214586258,-0.37098428606987,-0.019177533686161,-0.0674620419740676,0.2583293318748474,-0.4039375483989715,-0.1722519099712371,0.5997039675712585,-0.1265985667705536,0.0040164678357541,0.1220324337482452,-0.0267989821732044,-0.4014463722705841,-0.1742674559354782,-0.1158105060458183,0.3138629198074341,0.3754964470863342,0.1810230314731598,0.0832031667232513,-0.3006694614887237,0.0135097196325659,-0.0308953244239091,0.1196746006608009,-0.3282962143421173,-0.0727682560682296,-0.4119696319103241,-0.0649216622114181,0.0035591444466263,0.0481215640902519,-0.0292617473751306,0.2589985728263855,0.0540674552321434,0.0116531839594244,-0.2269691228866577,0.3049916923046112,-0.1806700080633163,0.0831400007009506,0.2199857234954834,0.2480896711349487,0.041171308606863,0.1085542812943458,-0.1710582971572876,0.1096176132559776,0.0969268605113029,0.4357630312442779,0.1206733807921409,0.0697141215205192,0.2629086375236511,-0.0806150957942009,-0.276440292596817,-0.5315822958946228,-0.0698156580328941,0.0915158912539482,0.0917270332574844,0.293098509311676,-0.0269345287233591,-0.0999394357204437,0.0064024585299193,0.267530620098114,0.0921305641531944,-0.0954211950302124,-0.0491021536290645,0.1135953068733215,0.0503630749881267,-0.1455279737710952,-0.2911920845508575,-0.0042907572351396,-0.1893463730812072,0.2093897312879562,-0.108727291226387,-0.0025627904105931,0.0058030551299452,0.1494051069021225,-0.3349853754043579,0.0517500936985015,-0.1055548340082168,-0.1152556613087654,0.3137133717536926,0.0512386262416839,0.1727842986583709,0.0559870041906833,0.23142009973526,-0.3954375684261322,0.0514180622994899,-0.3414823412895202,-0.3526117205619812,0.0246865525841712,0.1723809838294983,0.3936159312725067,0.1893695294857025,0.5338258743286133,-0.085991270840168,-0.3055318593978882,0.0987317860126495,0.2501977682113647,-0.206087127327919,-0.3255232870578766,-0.0590948313474655,-0.4645388126373291,-0.067056730389595,-0.2773755192756653,-0.1265497356653213,-0.199988305568695,0.0219616722315549,-0.3064477741718292,-0.1402072757482528,0.2865955233573913,0.1119741201400756,-0.5893609523773193,-0.4514268338680267,-0.3392998874187469,0.2131355702877044,-0.1013214588165283,-0.1461367309093475,-0.0474066026508808,-0.0713791996240615,-0.1370842307806015,-0.1256368607282638,0.0948745459318161,0.3836463987827301,-0.1122141256928443,-0.1407886743545532,-0.2976497709751129,-0.0162431988865137,0.2538661360740661,-0.1382980942726135,0.2248345762491226,-0.0929358974099159,-0.0361007861793041
F,-0.0181059837341308,-0.1998301595449447,0.4273350536823272,0.4886674284934997,0.1035034954547882,0.0459610037505626,0.7375375032424927,0.4558273255825043,0.3309572637081146,0.0088192019611597,-0.2233963310718536,-0.090555727481842,-0.2731678485870361,-0.3936114907264709,0.2176346331834793,0.6042772531509399,-0.6007616519927979,0.3251216113567352,0.1783339232206344,0.1082502454519271,0.5336878299713135,-0.2758446633815765,-0.2856325805187225,-0.1018558293581008,-0.3943618834018707,0.6919167041778564,-0.1118708550930023,-0.1280417144298553,-0.0803540423512458,-0.5541924238204956,0.2141897976398468,0.2362091988325119,-0.3198809921741485,0.039535354822874,0.1354289203882217,-0.2607893645763397,0.0010221196571364,0.2924427688121795,0.0316452607512474,-0.3292000591754913,0.072084404528141,0.3225530683994293,0.1284197717905044,-0.0058811148628592,-0.2562600970268249,0.3252748847007751,0.0410100594162941,-0.1954033374786377,0.1163908988237381,0.4858943819999695,0.2537667751312256,-0.1547600924968719,0.0621634572744369,-0.1965441256761551,0.0893227830529213,0.4981909096240997,0.1374497860670089,-0.5969418287277222,-0.0879721119999885,0.148288294672966,0.314258337020874,0.4256776869297027,0.1422645300626754,0.5338246822357178,0.0052647008560597,-0.2191925644874572,0.2135810703039169,-0.0265293829143047,-0.0375719182193279,0.0731705501675605,0.7937741279602051,0.1937404721975326,-0.470690369606018,0.1642175614833831,-0.0937012359499931,-0.1797001361846923,-0.4943720698356628,-0.3293890058994293,0.1101516559720039,-0.38112872838974,-0.0047173495404422,0.2723052203655243,0.1851173639297485,0.1477476805448532,0.0435845293104648,-0.3023192882537842,0.157452180981636,0.5011048913002014,0.3024621307849884,0.193806990981102,-0.0928372144699096,0.2065178304910659,-0.2526575922966003,-0.2118070274591446,0.0528004020452499,-0.0174981895834207,-0.071844607591629,-0.1319752782583236,-0.124364249408245,-0.1467714011669159,-0.0840979814529419,0.0016211374895647,0.1701390296220779,-0.4848428964614868,0.0831341594457626,0.0177118461579084,-0.2941611707210541,0.1272479444742202,0.1573243588209152,0.0800292417407035,-0.1116735190153122,0.5864130258560181,-0.2516326606273651,-0.015639990568161,0.1880810260772705,0.3610007166862488,0.0726715773344039,0.2850119769573211,0.1360434293746948,-0.4136183261871338,0.1713736057281494,-0.5129193067550659,-0.0869815349578857,-0.0487062484025955,0.0789263322949409,0.2626565098762512,-0.3109922707080841,-0.01325851585716,0.0945800244808197,0.1184580400586128,-0.038360983133316,0.2834008038043976,-0.3100414574146271,0.3340607285499573,0.2058636099100113,-0.0211531557142734,-0.2458325028419494,0.1491112112998962,0.5698170065879822,-0.0151109965518116,-0.0806831493973732,-0.3223548233509063,0.2230502814054489,-0.2834078371524811,-0.0803255289793014,0.30786794424057,0.1615437418222427,0.0167141035199165,-0.0285255201160907,-0.0412602238357067,0.1549020558595657,0.0825915783643722,0.2246303707361221,0.0379569493234157,-0.3941006064414978,-0.1142958104610443,-0.318716824054718,0.622157096862793,0.0575222671031951,0.2744343280792236,0.0166596602648496,0.6153279542922974,-0.4107856750488281,-0.1054767593741417,0.6090769171714783,0.1629169583320617,-0.1605626791715622,0.0608036518096923,-0.5305987000465393,-0.0604378655552864,0.0164508912712335,-0.3946384191513061,-0.1477696597576141,0.2511521577835083,-0.2484827190637588,-0.2086793631315231,0.0980681404471397,-0.2156091332435608,-0.0140789886936545,-0.2312984764575958,-0.3184399306774139,-0.2072862535715103,0.1747506707906723,-0.1351435333490371,-0.0500360131263732,0.1405138671398162,-0.2179528623819351,0.2400242388248443,0.1290017962455749,0.4045271873474121,0.4003868103027344,-0.0525543950498104,-0.0600313879549503,-0.1115492209792137,0.3876948356628418,-0.0760249495506286,-0.2892532348632812,0.1241901442408561,0.1785379499197006,0.0463504306972026
Ne,0.1337488740682602,-0.0053393305279314,-0.1176103129982948,0.3486177325248718,-0.3347302973270416,0.1210408434271812,0.8799508810043335,-0.3382879793643951,0.6939684748649597,-0.0393431521952152,0.1415757685899734,0.2101432830095291,-0.0879077389836311,-0.3784887492656708,-0.2036623805761337,0.0868431404232978,-0.360050231218338,0.4645361006259918,-0.0355962291359901,0.7255819439888,0.2797573506832123,-0.4336616098880768,0.2423912733793258,0.2959254682064056,-0.0007579191587865,-0.1918966323137283,-0.1308932453393936,-0.0395597890019416,0.7930379509925842,-0.0135800680145621,0.0129995038732886,0.0765287801623344,0.1281902939081192,0.1745430529117584,-0.4289312660694122,-0.0259355790913105,0.2483848929405212,0.0548190809786319,0.2745158672332763,-0.3416282832622528,0.6731190085411072,-0.0410476997494697,0.1768076568841934,-0.1958773732185363,-0.0286513771861791,0.468014657497406,-0.2465143948793411,-0.1337839812040329,-0.4692115783691406,0.3632097840309143,-0.4667617380619049,-0.627234935760498,0.6800917983055115,-0.0630171820521354,0.365565538406372,0.381057471036911,-0.1263709068298339,-0.5377869606018066,0.1205752044916153,-0.0138023840263485,-0.499058723449707,0.1051583960652351,0.2994022965431213,0.5643032789230347,-0.1849297732114792,0.040727213025093,-0.2191015034914016,0.0689887106418609,-0.1355409771203994,-0.2211366295814514,0.5566186904907227,0.1219622939825058,-0.2155052721500396,-0.3420014083385467,0.0427428781986236,-0.1572987735271453,-0.2910587787628174,0.3013145625591278,0.4379520118236542,0.2810548841953277,0.1369690299034118,-0.4346158504486084,0.0276349745690822,-0.0121360793709754,-0.4836510419845581,-0.1643190681934356,-0.503792941570282,0.4249375760555267,-0.1636614650487899,0.0387199707329273,0.065789021551609,0.0880516171455383,0.0531449653208255,-0.2545388042926788,-0.1528128236532211,0.1391527205705642,-0.1912628561258316,0.3303640484809875,0.0486277416348457,-0.1440760940313339,0.347083032131195,0.3620418608188629,0.0857288464903831,-0.2563979625701904,0.1453604251146316,-0.0316733233630657,-0.2429430335760116,0.1151674017310142,0.5483949780464172,0.2706042230129242,-0.5465627908706665,0.0884271413087844,-0.3085066080093384,0.4247828722000122,-0.1870662271976471,0.3475034832954407,0.4889278709888458,-0.3724916577339172,-0.1620052903890609,-0.3037022650241852,-0.1530714631080627,-0.3862600028514862,-0.6724646091461182,0.1649570912122726,0.2727367877960205,-0.4167949259281158,0.2787661850452423,-0.7254946827888489,0.4398428201675415,0.2331790328025818,0.189159408211708,0.1831603497266769,-0.3787232637405395,0.2771380841732025,0.142757385969162,-0.2963893711566925,-0.3448517620563507,0.4152065217494964,-0.1509911268949508,-0.0502311028540134,-0.0929149240255355,0.1699756234884262,-0.514569103717804,-0.2762081623077392,-0.4238666296005249,-0.0757708102464675,0.0664049908518791,-0.2275576591491699,0.0965409353375434,0.0937919169664383,0.2238197475671768,-0.376472920179367,0.5421590805053711,-0.2639443874359131,0.050757847726345,-0.226881742477417,-0.5903370380401611,0.6763563752174377,-0.0197769943624734,0.6505753397941589,0.1395058780908584,0.5126917958259583,-0.1553991883993148,-0.1320070028305053,0.2716342210769653,-0.038478035479784,-0.1230570003390312,-0.3650530874729156,-0.6084059476852417,-0.337847888469696,-0.4356113374233246,0.0086804442107677,-0.1114650815725326,0.0409044921398162,0.1323562413454055,-0.1170346811413765,-0.2055760771036148,0.5170051455497742,0.5607489347457886,-0.2659064531326294,-0.5352559089660645,0.0627314150333404,0.1681737154722213,-0.1033920049667358,0.2665120959281921,0.0293017793446779,0.3048310875892639,-0.0540151484310627,0.0765654370188713,0.0103870565071702,-0.1562858074903488,-0.3001805543899536,0.0089450748637318,-0.3379724323749542,0.3332745134830475,-0.0384341031312942,-0.1337138712406158,-0.2619357407093048,-0.2324596345424652,0.0897393226623535
Na,0.0135944485664367,0.3308722972869873,-0.1028747931122779,0.3249849081039428,-0.260534256696701,0.2516992688179016,0.5412617325782776,-0.02046331577003,0.007442723494023,-0.3346045613288879,-0.2530712485313415,0.1461647301912307,0.1164054796099662,-0.4967088103294372,-0.0108523936942219,0.2079965025186538,-0.49658864736557,0.4452399611473083,0.3959828913211822,0.5051113963127136,-0.3565404117107391,-0.5148147344589233,-0.5281342267990112,0.2923301458358764,-0.2284022718667984,0.3096714913845062,0.0027912708465009,0.3352571427822113,0.2995041608810425,0.2614878416061401,-0.3783903419971466,-0.0142424656078219,-0.4039004445075989,-0.0502265244722366,-0.0721308067440986,-0.0330904796719551,-0.1418044567108154,-0.2680994868278503,0.2249550968408584,-0.3407710790634155,0.5906409621238708,-0.1832075119018554,-0.0190412756055593,0.0316194742918014,-0.3673717081546783,0.1611921787261963,0.0606171861290931,0.2856947779655456,-0.5188308358192444,0.0494471415877342,-0.3897604644298553,-0.2340576350688934,0.0856737792491912,-0.0415469147264957,0.2820640802383423,0.7031183838844299,0.2547616362571716,-0.5118499398231506,-0.2708495259284973,-0.1268332749605178,0.5289108753204346,0.3431021571159363,0.3071902990341186,0.4413736164569855,0.0532812587916851,0.2629232108592987,-0.2606968283653259,-0.2800759673118591,-0.3320114314556122,-0.1392212659120559,0.5193167328834534,0.1925607174634933,-0.3525606393814087,0.0448887161910533,-0.2653883695602417,-0.3534072339534759,-0.1431748569011688,-0.029024351388216,-0.3052350282669067,0.0628896877169609,0.0443265065550804,-0.064286433160305,-0.1135972738265991,-0.1592523008584976,0.1675504893064499,0.2055495232343673,0.2110154032707214,0.7245497703552246,0.3653141558170318,-0.4036256670951843,-0.1553031355142593,0.1522276401519775,0.028785141184926,-0.0389797873795032,0.142434224486351,0.4290452599525451,-0.0163773689419031,0.0498052462935447,-0.280078262090683,-0.029888791963458,0.047800425440073,0.5987395644187927,-0.1873048245906829,0.3908557593822479,0.1104777753353118,-0.1538875550031662,-0.4363154470920563,0.5221226811408997,0.1880375891923904,0.0926644951105117,-0.0128129227086901,0.2997705638408661,-0.6236890554428101,-0.1564996093511581,-0.3184961676597595,0.1877789944410324,0.1405930370092392,-0.1614404171705246,0.0804540514945983,-0.0617186464369297,-0.3586632013320923,-0.5579709410667419,0.0008687633671797,0.2800469994544983,0.073359876871109,0.1166227981448173,0.2425055205821991,-0.3235303461551666,0.094953753054142,0.0796965733170509,0.4494298100471496,0.4462507963180542,0.1677725464105606,-0.039505697786808,-0.0489595718681812,-0.4584558308124542,0.3618989288806915,0.182859718799591,0.0761470273137092,-0.057181853801012,-0.2184368222951889,0.1716832369565963,-0.050039492547512,0.1097715273499488,-0.3685525059700012,0.1826063096523285,-0.1452889889478683,-0.1612407565116882,0.3330648839473724,-0.1141720563173294,0.6989150047302246,-0.2060922384262085,0.1548073291778564,-0.1606266498565673,-0.1985928267240524,0.1891489028930664,-0.0680815801024437,0.3164119124412536,-0.0609446838498115,0.4046245217323303,0.0546502731740474,0.2400184422731399,-0.0359356738626956,-0.2661968469619751,0.1989414989948272,0.4065036475658417,-0.0710519477725029,-0.2823599874973297,0.1495236605405807,-0.205995962023735,-0.1092760413885116,0.1201842054724693,-0.0968178510665893,0.2119793444871902,0.2514326870441437,-0.0488479100167751,0.3570836186408996,0.2042684406042099,-0.149125188589096,-0.090915523469448,0.1137026399374008,-0.5062782764434814,0.6535642147064209,0.0247683711349964,0.5435380339622498,0.1472623944282531,-0.1848064213991165,-0.0203637443482875,-0.1060224398970604,0.0803551077842712,0.0233931168913841,0.1794775575399398,-0.3614587485790252,-0.0839366093277931,0.2388257533311844,0.257172018289566,0.2849347591400146,0.4073176980018616,-0.3907215297222137,0.0254294853657484
Mg,-0.0472949594259262,0.2961387038230896,0.1773656904697418,-0.220912754535675,-0.3547956347465515,0.0878588557243347,0.4049344658851623,-0.026061937212944,-0.1896214485168457,-0.3556711077690124,0.0786183476448059,-0.1625201255083084,0.0167978405952453,-0.3744825720787048,-0.1579419374465942,0.0864000171422958,-0.0174073465168476,0.1514901667833328,-0.0818359404802322,0.6666640043258667,0.0662103816866874,-0.2739189565181732,-0.2961077094078064,0.0852988585829734,0.0437497273087501,-0.2113500088453292,-0.3980990648269653,0.212304949760437,0.1855073422193527,-0.124657541513443,-0.0517271645367145,0.1162469461560249,-0.1024932563304901,-0.0680840760469436,-0.1663222014904022,0.1088686659932136,-0.2569813132286072,-0.2911895513534546,0.3979845345020294,0.0109290285035967,0.5859313607215881,-0.125184416770935,0.428315132856369,-0.3999301791191101,-0.4807431697845459,-0.0669887587428093,0.381465882062912,-0.3368256092071533,-0.7644904255867004,0.3991886377334595,0.0792325064539909,-0.1145774498581886,0.0756106600165367,0.0064677121117711,0.2341797202825546,0.4311080276966095,0.394976258277893,-0.1131714880466461,-0.4446656703948974,-0.2420279085636139,0.1691146790981292,0.2473913878202438,-0.2691702544689178,0.0114826075732707,-0.1983935236930847,0.3719568252563476,-0.1734074801206588,-0.3034281134605407,-0.3002434968948364,0.4205174148082733,0.3802364766597748,0.1377623379230499,-0.3764663934707641,0.03493257984519,0.1144043132662773,-0.2454713881015777,-0.379758208990097,-0.3054487407207489,0.1745233088731765,-0.1614821255207061,0.2126928865909576,-0.0112834442406892,0.0248940140008926,-0.1170008778572082,0.0229755509644746,-0.0064423135481774,0.3544470071792602,0.0421924069523811,0.4609422981739044,-0.0227043032646179,-0.2573034465312958,-0.1053230687975883,0.1484499126672744,-0.0425692908465862,-0.141969233751297,0.1945174187421798,-0.0052326978184282,-0.1018145084381103,0.0914503037929534,0.0689457282423973,0.1025533452630043,0.5162661075592041,-0.0956150367856025,0.6123433709144592,-0.0825288221240043,0.1960559487342834,0.2248257398605346,0.2147873789072036,0.3502079546451568,0.082982063293457,-0.084587313234806,0.0149490777403116,-0.734987199306488,-0.0102583123371005,-0.3770953714847564,0.4175610244274139,0.3383169174194336,0.0452103428542614,0.342730313539505,-0.4748895764350891,-0.1738580465316772,-0.3259132802486419,0.3990657925605774,0.0687601119279861,-0.0129543282091617,0.3446989357471466,0.2144997715950012,-0.3146635890007019,-0.0062371348030865,0.1798982173204422,0.5687978863716125,0.3205296993255615,0.2426780313253402,0.1473491936922073,0.1415615677833557,-0.1855907291173935,-0.2393873035907745,0.0025833658874034,0.3980084359645843,0.2017168849706649,-0.3011255264282226,-0.3014979064464569,-0.1168136671185493,-0.0551974959671497,0.0622698254883289,-0.0140784792602062,0.0739819183945655,-0.2343142032623291,0.3821335136890411,0.1382369399070739,0.0442207343876361,-0.6049413084983826,0.3218899667263031,-0.28746497631073,0.081371821463108,-0.1642992496490478,-0.1695456355810165,0.5167496800422668,0.1365084499120712,0.3715931177139282,0.3156359195709228,0.0880456268787384,0.0830942913889885,0.1306188404560089,0.2072859853506088,0.3723566830158233,-0.180527776479721,-0.0668061599135398,0.1317266672849655,-0.4063262343406677,0.1751813739538192,0.1920569241046905,0.0743205994367599,-0.0337203741073608,-0.0014564328594133,-0.3891948461532593,0.451049655675888,0.4672755599021911,-0.4707230925559997,-0.1357163488864898,0.326134592294693,-0.5059211254119873,0.2086191773414611,-0.0410166159272193,0.1922272592782974,-0.1125963181257247,0.0394191406667232,0.0204009320586919,-0.1610714048147201,-0.0644470751285553,0.1533617526292801,0.0790523961186409,-0.0867818668484687,-0.0778444781899452,0.1483574211597442,-0.0552922971546649,0.2430573254823684,0.5369184017181396,-0.2133131623268127,0.1224885806441307
Al,-0.1115189269185066,-0.005658711772412,0.1574234515428543,-0.0528792738914489,-0.3275909125804901,-0.0051300534978508,0.4634279012680053,0.0533468723297119,-0.2397081702947616,-0.1213838383555412,0.2270333170890808,-0.3588552176952362,-0.035900592803955,-0.3091813921928406,0.2114130407571792,0.1249654218554496,-0.0532411783933639,-0.0489011444151401,0.1312833130359649,0.584841787815094,0.1741230189800262,-0.2318581938743591,-0.0812443047761917,-0.0164109598845243,-0.1877951323986053,-0.296621024608612,-0.2454164624214172,0.500531792640686,-0.0856601819396019,-0.053103819489479,0.001537870732136,0.3405293226242065,-0.1001265868544578,0.1978316009044647,-0.0286652967333793,-0.0675615519285202,-0.1522035598754882,-0.2360758632421493,0.2953546643257141,-0.3766320943832397,0.0906760245561599,-0.0170193314552307,0.2143950313329696,-0.3232824802398681,-0.0458193905651569,0.2327723950147628,0.2354598939418792,-0.2011591345071792,-0.6761824488639832,0.4104185700416565,-0.0548586100339889,0.0394722186028957,0.1525992155075073,0.054668053984642,0.2047174870967865,0.6422821879386902,0.3697910010814667,-0.2581145167350769,-0.4092414677143097,-0.1470488011837005,0.1218412891030311,0.050275545567274,-0.3442543447017669,0.0310396179556846,-0.2776910066604614,0.1769856214523315,-0.2261233180761337,-0.2539937198162079,-0.3059532940387726,0.2545463144779205,0.3011309206485748,0.0318387560546398,-0.1975263059139251,0.0786651894450187,-0.0266601685434579,-0.0571104884147644,-0.2866634130477905,-0.4337151050567627,-0.0068435580469667,-0.1870510280132293,0.1284900456666946,0.1608248949050903,0.1933054774999618,0.0892580598592758,-0.0417045354843139,-0.1300360262393951,0.1176698207855224,-0.0096261901780962,0.5162333846092224,0.0433088988065719,-0.0864848718047142,0.0055088475346565,0.2825809419155121,0.0024611609987914,-0.2665721476078033,0.4431260824203491,-0.1742156893014907,-0.0144588202238082,0.0979289636015892,0.0474905930459499,0.1390364319086074,0.3514121174812317,-0.2567022144794464,0.2641529738903045,-0.3884468078613281,0.0545497946441173,-0.0099462885409593,0.5407621264457703,0.1978937685489654,0.0612628199160099,0.1390152126550674,-0.0027537129353731,-0.6058819890022278,-0.0557040534913539,-0.2764035165309906,0.1757632046937942,0.1223152354359626,0.1673389673233032,0.0339415818452835,-0.430127739906311,0.0205941516906023,-0.4056371748447418,0.3033070564270019,-0.2305736988782882,-0.0576421432197093,0.3775678277015686,0.21411994099617,-0.0434121824800968,0.202788770198822,0.3104371726512909,0.1173076331615448,0.1073344126343727,0.1014427617192268,0.1019232496619224,0.1276314705610275,0.07339658588171,-0.3323576748371124,0.0024205734953284,0.378788024187088,0.0622995160520076,-0.2058050036430359,-0.1219075918197631,-0.1866212785243988,-0.0636930465698242,-0.2277819216251373,-0.0318749584257602,0.1268260180950164,-0.1523435413837433,0.261972427368164,0.289565771818161,-0.0191655177623033,-0.3598279058933258,0.2491368502378463,-0.094239518046379,0.0989573150873184,-0.0965584367513656,0.0855872482061386,0.2922646403312683,0.0762270763516426,0.2463230639696121,-0.0386771261692047,0.2484167963266372,0.2506417334079742,-0.0897567868232727,0.4648633301258087,0.0923820286989212,-0.1670257449150085,-0.1689000725746154,-0.094004102051258,-0.262857437133789,0.3840035796165466,-0.0090280892327427,0.0977775529026985,-0.2005136907100677,0.1273718774318695,-0.3929439187049866,0.321448415517807,0.195924162864685,-0.2568177580833435,-0.2332668900489807,0.042957030236721,-0.3317283689975738,0.1703550070524215,-0.0190876629203557,0.0841648057103157,-0.2949975430965423,0.3872022628784179,0.0383051075041294,-0.0114854043349623,-0.2022707462310791,0.0035132821649312,0.1130059957504272,-0.0244593154639005,-0.0645070225000381,0.0245294235646724,0.0321817249059677,0.2234935313463211,0.3090851604938507,-0.144547551870346,-0.0319333635270595
Si,-0.0629391223192215,-0.1186713576316833,0.2179947346448898,0.0715852826833725,-0.0980545133352279,0.0618220753967762,0.517244279384613,-0.215902954339981,0.1044113785028457,-0.1845236271619796,-0.017534501850605,-0.3896955549716949,0.3198336660861969,-0.4440390765666961,0.1537955105304718,0.2505128681659698,0.166540041565895,-0.144315630197525,0.1703523695468902,0.2908739149570465,0.2152436375617981,-0.1553149968385696,0.0882214978337287,0.154940664768219,-0.0303031578660011,-0.1053175777196884,-0.0388344042003154,0.398226261138916,0.0887664481997489,-0.008735304698348,-0.0443448722362518,-0.1060541942715644,-0.3403303623199463,0.3679018020629883,-0.2767598927021026,-0.0379205718636512,-0.0776429325342178,-0.1684827953577041,0.0951441451907157,-0.467794805765152,-0.0276189185678958,-0.0792477950453758,0.0690280124545097,-0.1654890775680542,0.0121234459802508,0.23432657122612,0.247312307357788,0.070942498743534,-0.4965461790561676,-0.043855220079422,-0.1959664076566696,0.2389178872108459,0.242665097117424,0.0857685506343841,-0.1201395690441131,0.4839392602443695,0.1527735441923141,-0.0773950666189193,-0.1390860825777053,-0.1400184780359268,0.1353479921817779,0.0638412907719612,-0.0106825735419988,0.2663767635822296,-0.1162938326597213,0.0247685853391885,-0.3858208954334259,-0.304025650024414,-0.4350145161151886,0.051277857273817,0.2855894863605499,0.2463023513555526,-0.093813456594944,0.1849980354309082,0.1740393638610839,0.3026883602142334,-0.2754668295383453,-0.6452118158340454,0.0587855093181133,-0.2889769673347473,-0.3099829852581024,-0.0564251728355884,0.1557120233774185,0.0024548969231545,0.0968636125326156,-0.1772566139698028,0.0903241857886314,0.1458945572376251,0.7664007544517517,-0.0385198555886745,-0.2896022200584411,-0.2392065525054931,0.0813714936375618,0.0295052863657474,0.0471201501786708,0.4518857598304748,-0.157737135887146,-0.0347007028758525,-0.0574111863970756,0.1640240103006363,0.3375727236270904,0.54063880443573,-0.0793830305337905,0.2137922346591949,-0.0576773732900619,-0.0194248035550117,-0.0083308471366763,0.5132076144218445,0.2849913537502289,0.1278465986251831,0.0163834262639284,-0.1020960956811904,-0.668393611907959,0.2394064217805862,-0.1377869248390197,-0.0631799921393394,-0.1097371056675911,0.0178199131041765,-0.0018087360076606,-0.3018742799758911,-0.0178774986416101,-0.6301460266113281,0.000572292599827,-0.3267173171043396,-0.0224801693111658,-0.3235512971878052,0.3975520730018616,0.0175663810223341,0.1418313384056091,0.0407717525959014,0.1573707461357116,0.1487698704004287,0.0840150266885757,0.2305650860071182,0.3576045334339142,0.0015341787366196,-0.3107037842273712,-0.0932497233152389,0.2718392014503479,0.1682467460632324,-0.3502508997917175,0.0392120443284511,0.0314430780708789,-0.0812430903315544,-0.3952270448207855,0.2225689738988876,0.0595370940864086,-0.275667279958725,0.360513687133789,0.2820465266704559,-0.02570073120296,-0.389641523361206,0.2314039170742035,-0.1740225255489349,-0.0881013721227645,-0.3290599584579468,0.1889403313398361,0.1089225187897682,0.0799909830093383,0.0769634246826171,-0.1576185375452041,0.2946469485759735,-0.0961555019021034,-0.0795213282108306,0.3262621760368347,0.18027064204216,-0.14421908557415,-0.0596010722219944,-0.0818729698657989,-0.2841096222400665,0.1437358856201172,-0.1911854743957519,-0.0929938629269599,-0.204742282629013,0.1030248478055,-0.6050492525100708,0.0663162469863891,0.3689043223857879,-0.2509719133377075,-0.2881422936916351,-0.0968365967273712,-0.2389435321092605,0.1336514204740524,-0.2060566246509552,0.0476375259459018,-0.3366997539997101,0.1415355056524276,0.1724639534950256,-0.1207696050405502,-0.0747890919446945,-0.259699285030365,-0.1951374560594558,-0.0087362984195351,0.0042060669511556,0.2144100069999694,-0.1725737601518631,-0.0524125955998897,0.1974094808101654,-0.1159762144088745,-0.0408682338893413
P,-0.3741005659103393,0.0809669271111488,0.0805672258138656,-0.0395119898021221,-0.152116596698761,0.0732103139162063,0.6145725250244141,-0.0017836597980931,-0.1303055137395858,-0.2390202134847641,0.0905897617340087,-0.2185523211956024,-0.0276636444032192,-0.333286315202713,0.0940160974860191,-0.0402378626167774,0.0185664035379886,0.3294747769832611,0.0312126968055963,0.640446662902832,0.0320643186569213,-0.0973939076066017,0.1296942085027694,0.1885169744491577,0.3214614987373352,-0.0349460579454898,-0.0334880612790584,0.3907670676708221,-0.1867738962173462,-0.1987518519163131,0.1550268530845642,-0.1973927021026611,-0.1473833322525024,-0.2257315963506698,0.3274374902248382,-0.3070057332515716,-0.0180432982742786,-0.0762338489294052,0.1768228560686111,-0.2976469695568084,0.2122878432273864,-0.1434145718812942,0.0220084674656391,-0.022773141041398,-0.3015002310276031,0.1232256516814231,0.3268978893756866,-0.4526814222335815,-0.2892821133136749,0.2010917365550995,-0.1290441006422042,0.1257956475019455,0.2237609028816223,0.0167669896036386,0.1088257431983947,0.4041122794151306,0.4123919904232025,-0.1698064357042312,-0.006312905345112,0.2147355675697326,0.334281712770462,0.1547644287347793,0.1843533515930175,0.6052393317222595,-0.0647177919745445,0.1189877316355705,-0.2437699288129806,-0.1406310200691223,-0.2869418263435364,0.3079777956008911,0.5528194904327393,-0.0750150009989738,0.040861889719963,0.1386841833591461,0.1288804411888122,0.190729558467865,-0.4749813079833984,-0.8796300292015076,-0.2561791241168976,-0.0289850421249866,0.0789659917354583,-0.3534272909164428,0.132092610001564,-0.1187874227762222,-0.0301494654268026,-0.3317808806896209,0.3927753567695617,0.0660419985651969,0.6703862547874451,-0.4479545652866363,-0.290314257144928,0.0514386743307113,-0.2633146643638611,0.0593728832900524,0.014244514517486,0.2119092345237732,-0.0528570972383022,0.3766482472419739,0.1282788962125778,0.1076644659042358,-0.3156075477600097,0.2307983338832855,-0.0257266964763402,-0.3051853477954864,0.015480519272387,-0.1444408595561981,-0.1038478389382362,0.1507275402545929,-0.3241995275020599,-0.1528049707412719,-0.0733623504638671,0.4652893245220184,-0.2796323299407959,0.193337470293045,-0.2791866362094879,0.161397784948349,0.0712314620614051,-0.0161521006375551,0.1843513548374176,-0.3117867708206177,-0.0265884846448898,-0.4141277372837066,0.2097737491130828,0.2123985439538955,0.1387744396924972,-0.005005641374737,0.2149181962013244,-0.3628854751586914,-0.089571975171566,0.2002369314432144,0.0985654219985008,0.2945775389671325,0.0938759967684745,0.4127429127693176,0.0507408119738101,0.0270302351564168,0.0329155437648296,0.1267248392105102,-0.0137176671996712,0.0965604931116104,-0.2694429159164428,-0.0732074081897735,-0.2272709459066391,-0.0284738540649414,-0.2760022282600403,0.2438004910945892,0.0894982665777206,-0.2734899222850799,0.3547310829162597,0.0164387170225381,0.0720839276909828,0.2106041312217712,-0.043140348047018,-0.1551934778690338,-0.4372893869876861,-0.3122589886188507,-0.2680503129959106,0.1898055970668792,0.3226682245731354,0.1208787709474563,-0.0008351059514097,0.5733296275138855,-0.5295929312705994,-0.1296200007200241,0.1876551657915115,0.2592259049415588,-0.1254327893257141,0.1562736630439758,-0.1349512785673141,-0.2337178438901901,0.0636160746216774,-0.0474963337182998,-0.0415618382394313,-0.0475229918956756,-0.2964354753494262,-0.2376381605863571,0.2841257452964782,0.0360846370458602,-0.0594099462032318,-0.6444277763366699,-0.186308816075325,-0.735695481300354,0.1616177856922149,-0.1681683212518692,0.0530640669167041,-0.4003244936466217,-0.1987665742635727,0.1368805468082428,-0.1715907454490661,0.1140176132321357,0.2702998220920563,0.0011902443366125,-0.0301649328321218,-0.1282826364040374,-0.4446792006492615,0.0883814617991447,-0.0355072990059852,0.1681025475263595,-0.0794893726706504,-0.000863519788254
S,0.1732129156589508,-0.1606993824243545,0.1511300206184387,0.2357367277145385,-0.0349292866885662,0.1902936846017837,0.5363771319389343,0.3915850520133972,0.1423429548740387,-0.1637621521949768,-0.0687941163778305,-0.301773339509964,-0.0506764687597751,-0.3457843959331512,-0.0464852601289749,0.4105369746685028,0.0929696708917617,-0.1295882761478424,0.1264302134513855,0.2761919200420379,0.0983354896306991,-0.1797478348016739,0.0268008038401603,0.2440472692251205,-0.038910798728466,0.0737836807966232,-0.2572934627532959,-0.1657567769289016,0.2321287542581558,-0.0180781278759241,0.0351944677531719,-0.0693922489881515,-0.3963923454284668,-0.0965701937675476,0.2655729949474334,0.026007754728198,-0.2677163779735565,-0.3015639781951904,-0.0816074311733245,-0.3071007430553436,0.3138375878334045,-0.077147364616394,-0.3112476170063019,0.0220416896045207,-0.3738335072994232,0.4851117730140686,0.3820687234401703,-0.1572253257036209,-0.2464158535003662,0.2537963986396789,-0.3977451920509338,0.2494079023599624,-0.0066743702627718,-0.0570653900504112,-0.2152223587036132,0.3232582211494446,0.3999381363391876,0.21623095870018,-0.0562442243099212,-0.4383412301540375,0.6751696467399597,-0.0181870814412832,0.4093244075775146,0.4724468886852264,0.0607859343290329,0.0475527644157409,0.3733507692813873,0.1779103130102157,-0.0966247767210006,0.1196099817752838,0.5718263387680054,-0.2305899411439895,-0.3735368251800537,0.0308542642742395,-0.291285753250122,0.2193594127893448,-0.5477589964866638,-0.2347417026758194,-0.3324865698814392,-0.0950089320540428,0.0340266488492488,-0.026688752695918,-0.1487407088279724,-0.1709100902080536,0.1280370652675628,-0.291243702173233,0.3104259371757507,0.3241665363311767,0.3742845356464386,-0.3082364797592163,0.2475215047597885,0.2562958002090454,-0.0791166350245475,0.143871858716011,-0.1945887506008148,-0.0650696083903312,-0.3227994441986084,0.2761057019233703,0.073249913752079,0.1068544462323188,-0.0674149692058563,0.1123389601707458,-0.016469120979309,-0.3046273589134216,0.2221517562866211,-0.0086798816919326,-0.0287132337689399,0.1257392913103103,0.4080257713794708,-0.0655455440282821,-0.1029793545603752,0.0567198060452938,-0.6380143761634827,0.1286954432725906,0.02121446095407,0.1888209581375122,-0.1058589667081832,-0.0231828056275844,0.005364041775465,-0.2929889261722564,0.0399858281016349,-0.384974718093872,0.1303893774747848,-0.2294821888208389,0.1663090735673904,0.1487441509962082,-0.0767130106687545,-0.3834822475910187,0.379125714302063,0.0628304630517959,-0.1953451186418533,0.1432904005050659,-0.1903616487979889,0.1866807788610458,-0.0278630405664443,-0.019255094230175,0.2103138417005539,-0.0134962406009435,0.0085667949169874,-0.19627146422863,0.0129087520763278,-0.1690828055143356,0.0302586145699024,0.0209712292999029,-0.1766055971384048,0.3351136744022369,0.1059753447771072,-0.699062168598175,-0.0053884694352746,0.1424775570631027,0.2451497018337249,0.1961926221847534,-0.1396917700767517,-0.3668189346790313,-0.3212121725082397,-0.0894178971648216,-0.1995358765125274,0.0131751727312803,-0.2311268299818039,0.1634642481803894,0.1070746481418609,0.6573059558868408,-0.1057200655341148,-0.2081943452358245,0.4715394377708435,0.0249872114509344,-0.064740240573883,-0.0239698812365531,-0.228634774684906,-0.3464119732379913,0.0936605930328369,-0.053781758993864,-0.1264525651931762,-0.4220349490642547,-0.0941880717873573,-0.266242653131485,-0.000382545083994,-0.1975229829549789,0.2808797061443329,-0.7221710085868835,-0.0468720309436321,-0.314054787158966,0.2553943395614624,-0.0850655660033226,0.0888050273060798,0.2108970582485199,-0.2014176398515701,0.0430826060473918,0.1450868993997573,-0.0967722684144973,0.2391546964645385,0.0566849298775196,0.0550502054393291,-0.3844937682151794,-0.0098786000162363,0.0250708051025867,-0.0234469212591648,0.2973095774650574,0.1799288690090179,0.1744659096002578
Cl,-0.0963869020342826,-0.1072040423750877,0.1354365050792694,0.3977706432342529,-0.1697537004947662,0.0067483345046639,0.5548002123832703,0.131858229637146,0.2234886735677719,-0.4245938956737518,-0.348595380783081,0.3279393315315246,-0.1842438131570816,-0.5252296924591064,-0.0546648390591144,0.3071023821830749,-0.6843702793121338,0.3577525317668915,0.3089648187160492,0.4245396852493286,0.29300457239151,-0.2259480059146881,-0.326493889093399,-0.0875007286667823,-0.1141461059451103,0.0524617806077003,-0.3455707132816314,0.3468956351280212,0.1150689423084259,-0.2229788601398468,-0.3393866419792175,-0.102370485663414,-0.3917693793773651,-0.0136071005836129,-0.0614406466484069,-0.3178867101669311,0.0507231540977954,-0.3433828055858612,-0.0465351231396198,-0.3026136755943298,0.607624351978302,-0.2819554507732391,0.1436641216278076,-0.5118322372436523,-0.1314009428024292,0.4389166235923767,0.3351179361343384,0.4285023212432861,-0.2678533792495727,0.4842031896114349,-0.3833578526973724,-0.1973926275968551,0.3675356805324554,0.0161287933588027,0.420926421880722,1.0140563249588013,-0.0299442335963249,-0.5539438724517822,-0.4237210154533386,-0.6308954358100891,-0.2083995789289474,0.468138724565506,0.3372935652732849,0.253688633441925,0.1199005022644996,0.2295879125595092,0.2213635444641113,0.2975538372993469,-0.4663383960723877,0.1958913058042526,0.3686991035938263,0.0611116886138916,-0.3435380458831787,0.0861965045332908,-0.1926335245370865,0.0439508184790611,-0.5539214611053467,0.3156052231788635,0.0563005320727825,-0.360467791557312,-0.1036645844578743,0.4240497052669525,0.2767747342586517,-0.3147444128990173,-0.2260806858539581,0.1288579851388931,0.0012422035215422,0.6551117897033691,-0.0721003711223602,0.3999333381652832,0.0393870174884796,0.2129357755184173,-0.3903515040874481,-0.1597478240728378,-0.0826296508312225,0.4175741970539093,-0.422171413898468,0.0032801521010696,0.0713281854987144,0.1682323962450027,0.1207797899842262,0.2412132322788238,0.0449598841369152,0.126218557357788,0.1147610917687416,0.0006070108502171,-0.2196570634841919,0.4870603680610657,0.4486687481403351,0.2759619653224945,0.0723518580198288,0.6469026207923889,-0.0427642799913883,-0.1293738186359405,0.3080447912216186,0.672324001789093,-0.1106535047292709,0.2000597715377807,0.0581358671188354,0.1304964274168014,0.0787879824638366,-0.4224061667919159,-0.2643376588821411,-0.0154198743402957,0.379425972700119,-0.2575547695159912,-0.0926814377307891,-0.2907219529151916,0.1045220419764518,0.0030922018922865,0.1533441692590713,0.2596504688262939,-0.0416863486170768,0.2121914178133011,0.111992746591568,-0.2725045680999756,0.0489362515509128,0.0924423411488533,-0.0015396954258903,0.3596596121788025,-0.3215401470661163,-0.0118461521342396,0.2437647581100464,0.3169730305671692,-0.1734074503183365,0.2836462557315826,0.0678106620907783,0.0348631888628006,0.28802689909935,0.0787316411733627,0.2386877387762069,0.0626996308565139,0.1878551840782165,-0.1127570867538452,-0.2678360044956207,0.0217896308749914,-0.1792224049568176,0.393445760011673,-0.0664330944418907,0.4059304296970367,0.1571268588304519,0.5977013111114502,0.0740760937333107,-0.1560862511396408,0.6096145510673523,0.1363138854503631,0.0681375414133071,-0.2729867696762085,-0.2040500938892364,-0.3408972024917602,-0.0705731436610221,0.2004469484090805,-0.3549039959907532,-0.1786191016435623,-0.0200767405331134,-0.0561817623674869,0.2323638498783111,0.2887220084667206,0.079060174524784,-0.3519149720668793,-0.4353220760822296,-0.5167878866195679,0.5087988972663879,0.357800155878067,0.1429935544729232,0.2991246879100799,-0.1638223379850387,0.0110018933191895,0.0457899682223796,0.261223167181015,0.2635608613491058,-0.1285010874271392,-0.1402181386947631,-0.4468824863433838,0.1287820488214492,-0.0406029745936393,0.1003049984574318,0.2186185270547866,-0.3231552839279175,0.001806940883398
Ar,-0.0215993877500295,-0.2943876385688782,-0.1955119669437408,0.3324239552021026,-0.0080063929781317,-0.1802094131708145,0.7066981196403503,-0.2886191010475158,0.1080465093255043,-0.0721414908766746,0.2899063229560852,-0.0432605445384979,0.3371480107307434,-0.3505190908908844,-0.1327140778303146,0.4435222148895263,0.0002540449204389,0.1802972257137298,0.2599262595176697,0.8239136338233948,0.0827081501483917,-0.1803798973560333,0.0361575484275817,-0.2460714727640152,0.0530352517962455,0.0080005414783954,0.136644497513771,-0.1524737626314163,0.556792140007019,0.2287526279687881,-0.2552553415298462,0.1360268294811248,0.2319456040859222,0.0311227012425661,-0.2196450233459472,-0.0574363581836223,-0.1740280091762542,0.1765656471252441,0.0042444881983101,-0.3406994938850403,0.3568319976329803,-0.1027851924300193,0.5129988789558411,0.1133849769830703,0.1115867719054222,0.7044355273246765,0.138910561800003,-0.21375672519207,-0.2884643375873565,0.7481574416160583,-0.2032297402620315,-0.3025176525115967,0.44588303565979,0.1850704252719879,0.2811843752861023,0.4767367243766784,0.0951568409800529,-0.3399011194705963,0.1894410848617553,-0.422145277261734,-0.3305839896202087,0.4272910356521606,0.3963721990585327,0.4229729473590851,0.0271802395582199,0.5354956388473511,-0.2630813121795654,0.0169347468763589,-0.486606240272522,-0.1816763132810592,0.2641423344612121,0.0214036460965871,-0.1917959004640579,0.2754275500774383,0.0700940117239952,-0.1124205812811851,-0.5063887238502502,-0.0696061477065086,0.470859557390213,0.2065058201551437,0.0119473952800035,-0.2116331309080124,0.1611471027135849,-0.1414866745471954,-0.2290898263454437,0.043171290308237,0.1592282503843307,0.2518736720085144,-0.0317821875214576,0.0372863858938217,-0.1460334360599517,0.0348682329058647,0.0368277505040168,-0.007825406268239,-0.3304950892925262,-0.1195845976471901,-0.2851511538028717,0.1123597100377082,0.1272883415222168,-0.092020645737648,0.0276842974126338,0.1935695707798004,0.1299162954092025,-0.2120743095874786,-0.0246586818248033,0.1021281108260154,-0.0410801358520984,0.2104069590568542,0.5819788575172424,0.5702032446861267,-0.11268300563097,0.1770651191473007,-0.0751751139760017,0.0093770576640963,-0.1611260175704956,0.6263046860694885,0.3653666079044342,0.0023696909192949,-0.1126080304384231,-0.1602323651313781,-0.1737138628959655,-0.4004445672035217,-0.3474182188510895,0.4504587352275848,0.1471585929393768,-0.4815115630626678,0.1740513890981674,-0.8469933867454529,0.0018485210603103,0.1814109236001968,-0.0578336119651794,0.0222667027264833,-0.0181603170931339,-0.0718875154852867,0.079151377081871,-0.4824576675891876,-0.5093675255775452,0.2819784581661224,0.017803257331252,-0.068255141377449,-0.0894869416952133,0.1763824820518493,-0.1510757803916931,-0.1084704548120498,-0.2713755965232849,-0.5653092861175537,0.1899514347314834,-0.1121615841984748,0.1225413307547569,0.0164252147078514,0.1236254125833511,-0.2570782005786896,0.4221810102462768,-0.3410096764564514,-0.0830423757433891,-0.0994269400835037,-0.179726094007492,0.2298412919044494,0.0262777227908372,0.2237730771303177,0.0189064908772707,0.5950113534927368,0.1560081243515014,0.1346639394760131,0.5257358551025391,-0.1104589998722076,-0.2624704539775848,-0.0603132098913192,-0.2784001529216766,-0.2792454957962036,0.1187327429652214,-0.1838095337152481,0.0775572136044502,-0.1240738928318023,0.112147256731987,-0.299150675535202,-0.366504430770874,0.588165283203125,0.3370717465877533,-0.051805455237627,-0.6039603352546692,-0.0628540888428688,0.2461400330066681,-0.3496318757534027,0.0249869227409362,0.2650037407875061,0.0971561819314956,-0.2443103492259979,-0.0179587174206972,-0.0296643003821373,0.2139289826154709,-0.4058286845684051,-0.082840196788311,-0.4627018570899963,0.2873190343379974,0.0444697402417659,-0.2246698439121246,0.0481465719640255,-0.3027354180812835,0.0302431248128414
K,0.1764133870601654,0.1463556438684463,0.1080179512500763,0.3595478534698486,-0.0175949074327945,0.2849375009536743,0.5190574526786804,0.3096955418586731,-0.0360149070620536,0.1565779596567154,0.3082885146141052,-0.1160100251436233,0.2105787247419357,-0.3978398144245147,-0.6016203761100769,0.1080420240759849,0.1113276705145835,0.0029011564329266,-0.1274812817573547,0.5479815006256104,0.0804358646273613,-0.313606709241867,-0.3357927501201629,0.0835728868842125,0.0254166442900896,0.3159169852733612,-0.0745758190751075,0.2474224269390106,0.0819586366415023,-0.1207234635949134,-0.2540054619312286,0.1806679368019104,-0.2825744748115539,-0.1757578402757644,-0.0013925209641456,0.0138950431719422,0.0103888409212231,-0.0288279615342617,-0.0557864233851432,0.176352709531784,0.19282928109169,-0.291150689125061,-0.1924027800559997,0.1190879270434379,-0.2577829658985138,0.0672946944832801,0.1716577857732772,-0.1252477020025253,-0.3611591756343841,0.3161728680133819,-0.1105052754282951,0.1254750937223434,0.3833189904689789,-0.1541874855756759,-0.0014058295637369,0.3218990862369537,0.5691095590591431,-0.1297226399183273,0.3570187091827392,-0.2634924054145813,0.3190303444862366,0.0419109836220741,0.1530434340238571,0.1625982075929641,-0.1497293710708618,0.4261296391487121,-0.0437215715646743,0.1315087378025055,-0.3601821362972259,-0.2393682599067688,0.3316234350204468,0.1032230854034423,-0.4108670055866241,0.2564066648483276,0.1060824394226074,-0.0604907348752021,-0.3269985020160675,-0.6121596097946167,-0.0120582105591893,-0.1569653302431106,0.0375452414155006,0.061666615307331,-0.1279671043157577,0.1551224142313003,-0.2099366635084152,-0.1468747854232788,-0.0307311173528432,0.0407514907419681,0.3768444359302521,-0.2282390147447586,-0.0259552560746669,0.1876082122325897,0.1041422188282013,0.0498610697686672,-0.0252449605613946,-0.0639256536960601,-0.0765131637454032,0.3759181201457977,0.2360601127147674,0.394286185503006,0.1400841474533081,0.2344280183315277,0.2126077860593795,-0.0147528341040015,0.0748348459601402,-0.0429718382656574,-0.3673921525478363,0.1159388944506645,-0.0244308840483427,0.4540641009807586,-0.0841184481978416,0.08701703697443,-0.137513130903244,0.2121191024780273,-0.0472922138869762,0.0088020637631416,0.0554157346487045,0.2509128749370575,-0.1487410068511963,-0.6074629426002502,0.253560870885849,-0.2382179349660873,0.0223027281463146,-0.228564515709877,-0.072730541229248,0.1170330643653869,0.3421630561351776,-0.0236278846859931,0.2193256914615631,0.1529851257801056,-0.0384156368672847,-0.3164696395397186,0.3075886964797973,0.1928053200244903,-0.229099839925766,-0.1059025600552558,0.1336994916200637,0.1449340581893921,0.1804161816835403,0.0519946254789829,-0.1982476115226745,-0.0515797771513462,-0.0284914784133434,-0.0555601343512535,-0.2203722298145294,-0.2558331191539764,0.2979459762573242,-0.3580851852893829,0.1261333376169204,0.2030389159917831,0.1981581151485443,-0.0712568461894989,0.2130331695079803,0.0659958198666572,-0.2572397887706756,-0.1597359776496887,-0.2007621973752975,0.1061053946614265,-0.183637723326683,0.0103066377341747,0.0955574810504913,0.0218013860285282,-0.0694636330008506,-0.0098560620099306,0.1084308326244354,0.3404282033443451,-0.1061844304203987,0.1588964462280273,-0.1834160536527633,-0.0850139483809471,-0.2511987388134002,0.219008669257164,0.0928967297077179,-0.2428183704614639,0.2287802696228027,0.0727651491761207,0.4249471426010132,-0.0714206621050834,0.2223639339208603,-0.3821741938591003,-0.2129665464162826,-0.1045708954334259,0.1505139470100402,0.0550233647227287,-0.134317934513092,-0.3816604614257812,0.1294632852077484,-0.2572889029979706,-0.0619832128286361,-0.2422676533460617,0.2782027125358581,-0.2828298211097717,-0.2008090913295745,0.2037130892276764,0.0356775410473346,-0.096680037677288,0.0234569627791643,-0.0586439706385135,-0.109392762184143,0.0714787989854812
Ca,-0.1977241337299347,0.245716854929924,0.0628624632954597,0.0632131695747375,-0.2708587646484375,-0.1007282435894012,0.6270424127578735,-0.1347822397947311,-0.1909080743789672,-0.3181913793087005,-0.0208404157310724,-0.1506239473819732,-0.0579504370689392,-0.268136978149414,-0.156810849905014,0.200492650270462,-0.0891899093985557,0.3486670851707458,0.2498218268156051,0.4292120039463043,-0.2767036855220794,-0.4020105898380279,-0.3723419308662414,0.2139850109815597,0.2010193318128585,0.0102976523339748,-0.220765084028244,0.2724872529506683,0.215395450592041,-0.0879994705319404,-0.2346514016389846,0.2101980745792389,-0.2013515383005142,0.2634848654270172,0.1982433348894119,-0.1936395168304443,-0.2078702449798584,-0.1427875161170959,0.4288088381290436,-0.2335852980613708,0.8347482085227966,-0.155473455786705,0.0927678272128105,-0.275279700756073,-0.5281020402908325,-0.0971595793962478,0.5187169909477234,-0.0286946650594472,-0.5858885645866394,0.1323752999305725,-0.04880803078413,-0.1124180257320404,-0.1294616609811782,-0.0212485268712043,0.1274909824132919,0.5904008150100708,0.4499921798706054,-0.3320940434932709,-0.3183793723583221,-0.1771910935640335,0.448406308889389,0.4191359579563141,0.1217241734266281,-0.0500191785395145,-0.1134047657251358,0.4481336772441864,-0.1622811257839203,-0.5360141396522522,-0.329906553030014,-0.0711950361728668,0.3398654758930206,0.1815611869096756,-0.4927634298801422,0.1255199164152145,-0.0384493768215179,0.0110550019890069,-0.5240124464035034,-0.301530659198761,-0.1741111129522323,-0.2383760660886764,0.1172773987054824,-0.0789692476391792,-0.0094940261915326,-0.2905054688453674,0.2664161324501037,0.2724063694477081,0.3880680799484253,0.299911618232727,0.5864435434341431,-0.4905373454093933,-0.1990697234869003,0.00498480303213,0.2430352866649627,-0.0431254357099533,0.017766248434782,0.0904125496745109,0.0293154399842023,0.0393720157444477,0.0074743051081895,0.2781218886375427,-0.0830665603280067,0.5278565883636475,-0.02193502523005,0.4651253521442413,0.3742936849594116,-0.1156719550490379,-0.0231259129941463,0.2789380550384521,0.4193166196346283,-0.1017086803913116,-0.216633528470993,0.3634548187255859,-0.4379250109195709,0.0031537923496216,-0.2608822882175445,0.2156450301408767,0.4232089519500732,0.0686364844441413,0.3629084825515747,-0.2941717505455017,-0.3632225394248962,-0.2975413501262665,0.2148323059082031,0.4490357637405395,0.1312914788722992,0.20179483294487,0.2528702020645141,-0.1537410467863083,-0.178717091679573,0.0932807773351669,0.7831534147262573,0.2896410822868347,0.2230211645364761,0.2044398635625839,-0.101228728890419,-0.0898765996098518,0.0367258265614509,0.0949029847979545,0.148236408829689,0.3781396448612213,-0.2714670598506927,-0.0950462147593498,-0.0730728209018707,0.2724499404430389,-0.0521632321178913,0.3053915798664093,0.0794811695814132,-0.2586654424667358,0.3542821109294891,-0.4435046315193176,0.2760878503322601,-0.2983317673206329,0.0406752750277519,-0.2043887972831726,-0.3332885801792145,0.1841638535261154,-0.2952306270599365,0.2876037955284118,0.0217751506716012,0.36005499958992,0.0592460669577121,0.2314112931489944,-0.3095256984233856,0.0489948913455009,0.1459719985723495,0.4890156388282776,-0.296253889799118,-0.1069362759590148,0.1813729107379913,-0.4934613704681396,-0.0855643078684806,-0.2179542481899261,0.0448485203087329,0.02983308583498,0.0254118293523788,-0.3701269626617431,0.5005027055740356,0.5695658922195435,-0.3652980327606201,-0.106198064982891,0.0565849319100379,-0.6172972321510315,0.3556743562221527,-0.1125954687595367,0.3472640514373779,-0.1972706615924835,0.0247557703405618,-0.0994186252355575,-0.2777447402477264,0.0872472897171974,0.3090687096118927,0.2424585670232772,-0.1954954862594604,-0.2470647990703582,0.0604210495948791,-0.1310861706733703,0.240602433681488,0.6305989027023315,-0.3315923511981964,0.0515599735081195
Sc,-0.2622012197971344,0.0129070598632097,0.3454113900661468,0.0290106069296598,-0.5946566462516785,0.224722608923912,0.6332711577415466,0.024854639545083,-0.210554614663124,0.0048249545507133,0.2644782662391662,-0.0850918516516685,-0.2748271822929382,-0.5459522604942322,-0.0521202497184276,-0.0449126884341239,-0.2392025887966156,-0.0708791986107826,0.1453552842140197,0.5895659923553467,-0.1291673481464386,-0.3582836389541626,-0.1486527025699615,0.3069746792316437,-0.1652787923812866,-0.463505208492279,0.1495640277862548,0.3242616951465606,0.0622682645916938,-0.1828867346048355,-0.0164424367249012,-0.1493735611438751,0.1063355132937431,-0.0636481344699859,0.150974839925766,0.0450177453458309,0.2978011965751648,0.0123112658038735,0.2824720442295074,-0.1945658922195434,0.7223407626152039,-0.2592726051807403,0.3039751052856445,-0.2313767671585083,-0.4395672380924225,0.3837966620922088,0.1737787127494812,-0.1724004447460174,-0.7484773993492126,0.0499930717051029,0.2714625298976898,-0.3572490513324737,-0.3819108009338379,-0.2844397723674774,0.0558332428336143,0.6665907502174377,0.3345727324485779,-0.2615773975849151,-0.0981299132108688,-0.0573350116610527,0.0377673879265785,-0.1280884742736816,-0.2365675419569015,0.1278744488954544,-0.521431028842926,0.3061946332454681,-0.028601586818695,-0.6173786520957947,-0.5263824462890625,0.2147116810083389,0.3484798073768616,0.1304897218942642,-0.3270233571529388,0.2667220532894134,0.1975934654474258,-0.3198226392269134,-0.0465547479689121,-0.4851324558258056,0.4884334504604339,-0.3283498883247375,0.3337051570415497,0.249144360423088,0.3633907437324524,0.1022251322865486,0.0898853689432144,0.3328940570354461,0.1596681773662567,0.2347572445869445,0.4670913219451904,-0.313945323228836,0.0532404482364654,0.400309294462204,0.3584376871585846,-0.1448011547327041,-0.3981643319129944,0.5203004479408264,0.250151127576828,0.0728015080094337,0.182236298918724,0.0373181477189064,-0.3678727149963379,0.6390313506126404,-0.2804489433765411,0.4210008680820465,-0.0067550605162978,-0.0376961566507816,0.0512821823358535,0.7680903673171997,0.1439814269542694,0.1896776556968689,-0.1605609357357025,0.1362435072660446,-0.4851816892623901,0.4003000855445862,-0.1517213284969329,0.3912816345691681,0.1466475874185562,-0.2784319221973419,0.2140354514122009,-0.3178001940250397,-0.5014147162437439,-0.5216919183731079,0.2156341522932052,-0.447601854801178,-0.1533253341913223,0.5118788480758667,-0.0441294014453887,-0.5565706491470337,0.1227174922823906,0.0306953638792037,0.4787167012691498,0.1427127867937088,0.1530918180942535,0.1401131898164749,-0.1680030077695846,-0.3194831013679504,0.0050335470587015,0.0316664986312389,0.2108409404754638,-0.5118151903152466,-0.2811758816242218,0.057294812053442,-0.4556904435157776,0.0330100804567337,-0.0695486813783645,-0.4016591906547546,-0.0725060477852821,-0.0348461233079433,0.0620753578841686,0.2517857551574707,0.2929771244525909,-0.5201466083526611,0.3352435231208801,-0.0521063432097435,0.1052899435162544,0.0076062511652708,-0.4336000680923462,0.8559361696243286,0.0421320535242557,0.4321781098842621,0.1203421130776405,0.4880610704421997,0.003498914418742,-0.024866621941328,0.4054426848888397,-0.1050783842802047,-0.1516324430704116,-0.1987901479005813,0.2027917802333831,-0.3611005544662475,-0.1280870884656906,0.153067484498024,0.3344687819480896,0.186489999294281,0.0426077991724014,-0.6339545249938965,0.3465228974819183,0.7036351561546326,-0.0369752310216426,0.0550437495112419,0.031204093247652,-0.2863493859767914,0.3022798597812652,-0.0297146271914243,-0.0195761024951934,-0.1252409964799881,0.1877086609601974,-0.1927145272493362,-0.219373345375061,0.1639496386051178,-0.1622737348079681,0.2640394866466522,-0.3928892612457275,-0.5630411505699158,0.0458167158067226,0.0284560304135084,0.0493735522031784,0.4549315869808197,0.1155372783541679,0.1476662307977676
Ti,-0.125702366232872,-0.2359514534473419,-0.0382948480546474,-0.4527574777603149,-0.1649979799985885,0.2779444456100464,0.6169833540916443,0.1540151834487915,-0.0353499054908752,-0.0783114731311798,0.2952019572257995,-0.1036308482289314,0.0727563872933387,-0.4435789883136749,0.1563248336315155,0.5996667146682739,0.1136687770485878,-0.2152359783649444,0.0949122756719589,0.4063476324081421,-0.1000549867749214,-0.1196815893054008,-0.1394376158714294,0.2649706304073334,-0.0042749154381453,-0.1855489760637283,0.0657652616500854,0.4107914865016937,-0.0598730221390724,-0.1416368782520294,0.0573712475597858,-0.0166962593793869,0.0317401848733425,-0.012604609131813,0.1490373909473419,-0.2261071652173996,0.1605141460895538,-0.2458035796880722,-0.0305383931845426,-0.4273278415203094,0.308976262807846,0.0291710905730724,0.2082200348377227,-0.3616944551467895,0.0131110558286309,0.3070275485515594,0.3540402352809906,0.028243264183402,-0.1793574690818786,0.2783180773258209,0.27008718252182,0.0171413589268922,0.401985615491867,0.1094056144356727,0.0498421601951122,0.7151206731796265,0.3277663886547088,-0.2756954133510589,-0.1697492152452469,-0.0748207345604896,0.0965305268764495,0.1334350109100341,-0.0615643709897995,-0.1047322899103164,-0.3729657232761383,0.1318939179182052,-0.6316728591918945,-0.3112939000129699,-0.0120037412270903,0.2318574786186218,0.3688061237335205,0.0173248797655105,-0.3698205351829529,0.1783169358968734,0.1469736993312835,0.1295320093631744,-0.2408495843410492,-0.5783082246780396,-0.0775176361203193,-0.3242978155612945,0.0139533458277583,0.2908536493778229,0.2842641472816467,0.0413978286087513,0.0681561157107353,0.0769339427351951,-0.1162254214286804,-0.0304497499018907,0.5997099280357361,-0.1033661514520645,-0.0818006321787834,-0.1444281786680221,0.290503442287445,-0.1384111642837524,-0.3291051089763641,0.1846152544021606,-0.2064526826143264,0.1124825626611709,0.1408909112215042,0.2297882288694381,-0.097355879843235,0.3324602544307709,-0.0199215002357959,0.3083830177783966,-0.5362750291824341,0.0670932605862617,-0.1701664328575134,0.3729873299598694,0.2559434175491333,0.1814289093017578,0.1231875121593475,0.1042692735791206,-0.6121433973312378,0.1060646325349807,-0.4424322843551636,0.0362257733941078,0.0575947947800159,-0.3550257086753845,0.1821887046098709,-0.3378156423568725,-0.2421637773513794,-0.3185947239398956,0.2530211806297302,-0.1676962524652481,-0.1714372634887695,0.2047837376594543,0.2847701609134674,-0.656218409538269,0.142029583454132,0.4576171934604645,0.0922643393278122,-0.0496077500283718,0.0021599617321044,0.19719098508358,0.0704529732465744,-0.1471172273159027,-0.3244343101978302,0.0024351351894438,0.5040364861488342,0.202280193567276,-0.2336332648992538,-0.1332044899463653,-0.2007210701704025,-0.0207363534718751,-0.0565571412444114,0.030250322073698,0.2084147632122039,-0.3174209594726562,-0.1584136635065078,0.0860697776079177,-0.142083540558815,-0.3035441040992737,0.2284286320209503,-0.1605389565229416,0.1832505464553833,-0.0396572910249233,0.168304294347763,0.3223945200443268,0.3045627176761627,0.1662060916423797,-0.0723951160907745,0.12442347407341,0.1875965148210525,0.1019227653741836,-0.017594339326024,0.337217777967453,-0.0987017527222633,-0.37588831782341,-0.1674831956624984,-0.3595459759235382,0.3561741411685943,0.0281776841729879,0.0396098643541336,-0.13787642121315,0.2993104159832001,-0.3919789791107178,0.2299208343029022,0.2073323875665664,-0.4436598718166351,-0.1371774822473526,-0.1827604323625564,-0.3916873335838318,0.2280792444944381,-0.1629015058279037,-0.0486375950276851,-0.0791240110993385,0.1659411191940307,-0.0593247190117836,0.2555730938911438,-0.1119195818901062,0.0719844400882721,0.2230615615844726,-0.1910194754600525,-0.1700885742902755,0.3073026239871979,-0.0620428696274757,0.111149750649929,0.2994361221790313,-0.1819220185279846,0.1493616998195648
V,0.2048579156398773,-0.0056361677125096,0.0102141834795475,-0.0763629600405693,-0.2862527370452881,0.2013034522533416,0.8776889443397522,0.0504459291696548,0.3218543529510498,-0.1798823475837707,0.1433601081371307,-0.2116581499576568,-0.3474648296833038,-0.456924557685852,-0.1335921734571457,0.3831489086151123,-0.0525157861411571,-0.1327633708715438,-0.1532274633646011,0.6950649619102478,0.0496337115764617,-0.0179106164723634,7.198923412943259e-05,0.1974916607141494,0.0880060195922851,0.1831788569688797,0.2249900549650192,0.0603954046964645,-0.1964196860790252,-0.267491728067398,0.0306254047900438,0.1632266044616699,-0.4060782790184021,-0.3728280961513519,0.3553390800952911,-0.2356724590063095,0.3428813815116882,-0.4402770102024078,0.0707044377923011,-0.2091911733150482,-0.0189235620200634,-0.0140543654561042,0.182474210858345,0.1204710975289344,-0.3263009786605835,0.3764978051185608,-0.0256670452654361,-0.1471373289823532,-0.3200607597827911,0.3365402817726135,-0.0786889865994453,0.4181223511695862,0.0947441607713699,0.2309055775403976,0.0638223588466644,0.6466240286827087,0.2259032279253006,0.1299824565649032,0.2166927456855774,-0.336990088224411,0.1129629760980606,0.2208327800035476,-0.1165004670619964,0.301513522863388,-0.1263981163501739,0.1108238399028778,-0.415341854095459,-0.0633844658732414,-0.0742237791419029,0.3075789511203766,0.5603234767913818,-0.0014736544108018,-0.1809524297714233,0.1374472379684448,0.2176873981952667,0.1209976375102996,-0.0126599827781319,-0.7133755087852478,-0.0367819592356681,0.0018866835162043,-0.1508068442344665,0.6470266580581665,-0.1811575293540954,-0.0205017626285552,-0.2154027074575424,-0.5215578079223633,-0.142394408583641,0.1376408189535141,0.4265998899936676,-0.2025803476572036,-0.3578115403652191,0.2906003594398498,-0.0127875600010156,-0.1872676461935043,-0.1016471609473228,-0.085166186094284,0.1319948434829712,0.1437597274780273,0.0116068813949823,0.323419988155365,-0.0116910804063081,-0.0642199739813804,-0.403744101524353,0.1612168401479721,-0.2657094597816467,0.0681874305009841,-0.2873378694057464,0.0586787164211273,0.1380733102560043,0.0593582764267921,-0.010033743456006,0.2135062515735626,-0.3610812425613403,0.2673500478267669,-0.2365928441286087,0.0377109907567501,-0.0976555868983268,-0.1283496618270874,0.2899322211742401,-0.2442888021469116,-0.0389514118432998,0.0305557139217853,0.090604618191719,-0.1935954988002777,-0.4811107814311981,0.3150866031646728,0.1335500925779342,-0.0699603408575058,-0.0706482008099556,0.2755155861377716,-0.0235227551311254,0.1219432651996612,-0.1066365838050842,0.2301730662584304,-0.125808760523796,-0.2820832729339599,-0.1693653613328933,-0.1704470366239547,0.2359325587749481,-0.0433323495090007,-0.0146773131564259,-0.1227013245224952,-0.1989000588655471,-0.0260504614561796,-0.0801341086626052,0.0396643877029418,-0.0242598950862884,-0.2451579868793487,-0.1743905246257782,0.3889767229557037,0.2309698462486267,0.1066787466406822,0.0078029474243521,-0.1103546246886253,-0.2820429503917694,-0.0987321361899375,-0.0232828427106142,0.2978275716304779,0.1521678864955902,0.1873137652873993,-0.1406938880681991,0.8173901438713074,0.069725900888443,-0.0090694483369588,-0.0323066525161266,0.2343680113554,0.0049771727062761,-0.4002219140529632,-0.355441153049469,0.194443941116333,-0.0788104236125946,0.1182721853256225,-0.5405220985412598,-0.0894279032945633,0.0679863542318344,-0.1931208819150924,0.3345434963703155,0.0652020499110221,-0.0117620155215263,-0.5191568732261658,-0.278252363204956,0.3778725862503052,0.0599351450800895,0.0661219879984855,-0.0298723019659519,-0.0463142432272434,0.1968797743320465,0.2761219441890716,0.0490645430982112,0.102282166481018,-0.0803316682577133,-0.4061452150344848,-0.0548229776322841,-0.2705266773700714,-0.0850237384438514,0.1120724231004715,0.0774537473917007,0.0126261468976736,0.3573905527591705,0.3624131083488464
Cr,-0.2851702272891998,-0.0399761423468589,0.0563199371099472,0.1253959387540817,-0.4475504457950592,-0.0708328783512115,0.6837973594665527,0.1354727745056152,-0.0826418399810791,-0.3399674892425537,0.3625050783157348,0.3240622282028198,-0.0045493314974009,-0.6093199849128723,-0.1752309501171112,0.2952286303043365,0.0617247596383094,0.0217391736805439,0.2692325413227081,0.3041692972183227,0.2578680217266083,-0.0497619584202766,-0.1304017305374145,0.3294644951820373,-0.6079089641571045,-0.2474556416273117,-0.0185871552675962,0.1975589394569397,0.1159162819385528,-0.1535567939281463,0.3156379759311676,-0.0460318103432655,0.0731658712029457,-0.0148449288681149,0.2367708832025528,-0.0821771696209907,0.1381147801876068,0.0512970648705959,0.4372197985649109,-0.5380584001541138,0.2556653916835785,-0.2251089513301849,-0.2072725296020507,-0.5021374821662903,-0.2315573692321777,0.1557200998067855,0.3406071066856384,-0.1155157387256622,-0.2804572284221649,0.5550087690353394,0.4452544748783111,0.0644845813512802,0.1301924735307693,-0.0769547820091247,0.0031288741156458,0.6728232502937317,0.3064582645893097,-0.0175630245357751,-0.1731718778610229,-0.1360470801591873,-0.0845743343234062,0.0281739719212055,0.0646784901618957,-0.044157937169075,-0.2583701312541961,0.0176875256001949,-0.0727493166923523,-0.5387665033340454,-0.3380786478519439,0.2226060032844543,0.5701099634170532,0.1615191847085952,-0.1866690516471862,0.0917270481586456,0.1088117361068725,0.0562088936567306,-0.2092933654785156,-0.4032537043094635,-0.2337063699960708,-0.1721047461032867,0.0749993622303009,0.2039496451616287,0.6267446279525757,0.0317379646003246,0.1682946681976318,-0.1725048571825027,-0.0856040269136428,0.1249414458870887,0.3139472007751465,0.0671795085072517,0.1616869419813156,0.1604591012001037,0.3552891910076141,-0.2075469195842743,-0.3344420790672302,0.3553638458251953,-0.4342301785945892,0.5455384254455566,0.448892593383789,0.2165409326553344,0.2909064292907715,0.0688149482011795,-0.3160310983657837,0.2697333395481109,0.0031304785516113,-0.1736605763435363,0.0904165208339691,0.2056718319654464,0.1467766761779785,0.1692592054605484,0.1928854584693908,-0.0057336739264428,-0.6255203485488892,0.15275339782238,-0.2008437812328338,0.2429678589105606,0.4894125163555145,-0.0535656251013278,0.1800662577152252,-0.546923041343689,-0.4434770941734314,-0.372675210237503,0.013936361297965,-0.3149912655353546,-0.1009922698140144,0.2444631457328796,0.1616715043783188,-0.2708465456962585,0.1804259568452835,0.4819840788841247,0.229783609509468,0.0968959257006645,0.0052269082516431,-0.0278279613703489,-0.1494853049516677,-0.0746577754616737,-0.0319097153842449,0.0260095428675413,0.4326421916484833,-0.2423638701438903,-0.4341832101345062,0.0163411442190408,-0.0684543326497078,0.3472298383712768,0.2099806666374206,-0.1637361943721771,-0.0279960837215185,0.0181721411645412,-0.0565680153667926,0.3243729770183563,0.055224735289812,-0.1628533601760864,0.3533525466918945,-0.0416708700358867,-0.211474522948265,-0.4184443056583404,-0.0753974616527557,0.4936259984970093,0.3816412687301636,0.0522172339260578,0.0896792039275169,0.5195145606994629,-0.0008123062434606,-0.252983957529068,0.0139096472412347,0.3884977996349334,0.1044232994318008,-0.1648022234439849,-0.0872963517904281,-0.3091216385364532,0.2790951728820801,0.07013800740242,-0.1732122898101806,-0.0809623301029205,0.176574096083641,-0.2748246788978576,0.2278683334589004,0.371191143989563,-0.2275402694940567,-0.3319803774356842,-0.0893193632364273,-0.1589905470609665,0.1496316641569137,-0.2505590617656708,0.068559318780899,-0.1816139817237854,0.1501282900571823,0.1506244540214538,0.1120843961834907,-0.0541973710060119,-0.1115548834204673,-0.1165019944310188,-0.0897269025444984,-0.2750929594039917,0.087592676281929,0.0228967294096946,0.5979911684989929,0.1839748620986938,-0.2777899801731109,0.0191981699317693
Mn,0.0208643339574337,0.2060299515724182,0.4345289766788482,0.0558395646512508,-0.5002635717391968,0.1649804711341858,0.5867612957954407,0.2851631343364715,0.0880055427551269,-0.2405453771352768,0.2394709885120391,-0.2938050925731659,-0.1099807918071746,-0.4812692403793335,-0.1628024727106094,0.1612378507852554,-0.0761868804693222,-0.1143857017159462,0.2598072290420532,0.2534929513931274,-0.1165365502238273,-0.0074055725708603,-0.3675586879253387,0.2942690551280975,-0.1988336890935897,0.1705777794122696,-0.1771531403064727,0.2758882641792297,0.1611011326313018,-0.11821099370718,0.1406790614128112,0.06684410572052,0.1969151943922042,-0.0557337291538715,0.2302981913089752,-0.2118728756904602,0.0613575987517833,-0.0254281871020793,0.536270022392273,-0.3472236394882202,0.4769380986690521,-0.3925968110561371,-0.0180351976305246,-0.3852055072784424,-0.539882481098175,-0.2054176479578018,0.311081975698471,-0.0763390213251113,-0.3922972381114959,0.2148243635892868,0.1525615155696869,0.0072726495563983,-0.0580458305776119,0.1008581593632698,0.0751220807433128,0.4688974916934967,0.4150730967521667,0.1438497006893158,-0.1552364826202392,-0.1975582242012024,-0.0085831210017204,-0.0029696801211684,0.1258155107498169,-0.117638498544693,-0.0926656946539878,0.2496694773435592,-0.2303915023803711,-0.6931464672088623,-0.4791092574596405,0.2366254925727844,0.4330412745475769,0.4135739505290985,-0.3509555160999298,0.1959069371223449,0.2055542171001434,-0.0638088807463646,-0.7211320996284485,-0.5229566097259521,-0.2825417220592499,-0.1749812513589859,-0.0690080747008323,0.1117022708058357,0.4979386627674103,-0.2560555338859558,0.1873046308755874,-0.180724635720253,0.0605365522205829,0.0266780368983745,0.3877266347408294,-0.0143498890101909,0.1352868527173996,0.188041403889656,0.3327664732933044,-0.3103834986686706,-0.2663321495056152,0.1411446928977966,-0.7583266496658325,0.2787936329841614,0.4795476794242859,0.3720263242721557,0.2560122311115265,0.3025884926319122,-0.3790763914585113,0.3670494556427002,0.2886859476566314,-0.2139528691768646,0.1449145376682281,0.4969576001167297,0.2062353938817978,-0.0451359264552593,0.1462198495864868,0.0809539929032325,-0.600661039352417,0.2531043291091919,-0.2900023460388183,0.3686587810516357,0.0646205469965934,0.0160647556185722,0.2430526316165924,-0.5065042972564697,-0.3441729843616485,-0.515854001045227,0.2440988272428512,-0.0349049717187881,-0.2041991353034973,0.1527576744556427,0.1974980980157852,0.144810065627098,-0.0362199656665325,0.1163229942321777,0.3242987394332886,0.3068441152572632,0.285601258277893,0.0373583287000656,-0.1006737723946571,-0.5411350727081299,-0.0857522636651992,0.147276684641838,0.3095162808895111,-0.1224973425269126,-0.1651774048805236,0.0107584074139595,-0.0678006559610366,-0.0387706756591796,-0.0416823625564575,-0.0756130665540695,0.1111646443605423,-0.1502306312322616,0.0482016392052173,0.4070605635643005,0.22027587890625,-0.1918202191591262,0.032852254807949,-0.0011865346459671,-0.162215918302536,-0.2277972251176834,-0.135138526558876,0.0930350199341774,0.0964383706450462,0.1622144132852554,-0.1025309786200523,0.3104153871536255,-0.3764017820358276,-0.3321996033191681,0.17670539021492,0.0741556286811828,-0.1379783004522323,0.0147396130487322,-0.1326187849044799,-0.4376961290836334,0.2526922821998596,-0.3234792947769165,-0.0820725932717323,-0.0814997106790542,-0.1574850976467132,-0.370155394077301,0.2668292820453644,0.3649034202098846,-0.4821449518203735,-0.5134544968605042,-0.1254949569702148,-0.0998552069067955,0.0581261329352855,0.0215575918555259,0.0752782002091407,0.0009307785658165,-0.0166268199682235,0.2701773643493652,0.1091118305921554,0.0888291522860527,0.0723022669553756,-0.2431241124868393,-0.0804435238242149,-0.0998294875025749,0.0351617373526096,-0.1021964699029922,0.2464348822832107,0.4727103412151336,-0.2034193128347396,-0.1614358127117157
